tree
version=v3
num_class=1
num_tree_per_iteration=1
label_index=0
max_feature_idx=51
objective=lambdarank
feature_names=Column_0 Column_1 Column_2 Column_3 Column_4 Column_5 Column_6 Column_7 Column_8 Column_9 Column_10 Column_11 Column_12 Column_13 Column_14 Column_15 Column_16 Column_17 Column_18 Column_19 Column_20 Column_21 Column_22 Column_23 Column_24 Column_25 Column_26 Column_27 Column_28 Column_29 Column_30 Column_31 Column_32 Column_33 Column_34 Column_35 Column_36 Column_37 Column_38 Column_39 Column_40 Column_41 Column_42 Column_43 Column_44 Column_45 Column_46 Column_47 Column_48 Column_49 Column_50 Column_51
feature_infos=none none [0:7076] [0:37.840815999999997] [0:242.27160000000001] [0:27.959433000000001] [0:30.966194000000002] [0:34.482353000000003] [0:37.969169999999998] [0:42.696975999999999] [0:63.064655000000002] [0:114.71093999999999] [0:51.203884000000002] [0:216.31496000000001] [0:70.8215] [0:50.231068] [0:47.043520000000001] [0:8785] [0:40.702249999999999] [0:10.230309999999999] [0:24.789165000000001] [0:31.833808999999999] [0:12] [0:10.865385] [0:30.843695] [0:27.610431999999999] [0:69.097430000000003] [0:15.650228500000001] [0:205.13928000000001] [0:20] [0:33.374206999999998] [0:26.657050000000002] [0:16.935182999999999] [0:96.420720000000003] [0:29.164915000000001] [0:11.735281000000001] [0:210.39764] [0:30.303799000000001] [15:517] [0:15] [1:5] [1:199524] [1:1559] [0:0.0015360663000000001] [0:32066792] [1:1000000] [0:1] [1:34] [0:4] [0:3] [0:3] [0:1]
tree_sizes=3573 3577 3567 3603 3576 3586 3604 3577 3578 3607 3606 3590 3581 3608 3595 3606 3612 3610 3598 3621 3603 3611 3599 3625 3599 3611 3628 3611 3622 3611 3612 3621 3607 3617 3638 3605 3611 3630 3606 3583 3628 3607 3618 3605 3609 3617 3616 3643 3629 3633 3621 3628 3613 3612 3606 3647 3603 3640 3653 3645 3609 3635 3634 3631 3605 3644 3633 3626 3640 3601 3628 3630 3654 3642 3625 3647 3604 3637 3642 3619 3630 3629 3633 3633 3624 3633 3636 3612 3586 3620 3649 3633 3612 3655 3656 3588 3651 3607 3610 3626

Tree=0
num_leaves=31
num_cat=0
split_feature=34 19 34 10 42 3 21 40 19 41 19 40 6 41 33 7 34 34 43 10 34 24 40 34 25 34 25 45 41 45
split_gain=274824 54439.4 20475.7 14886.8 13888.9 6238.32 4856.06 4519.65 4141.09 4134.71 2906.86 2736.51 2365.75 3248.6 1778.75 1737.38 1663.94 1641.44 1446.3 1226.08 1085.46 985.856 962.386 879.761 878.442 874.699 854.944 826.896 792.98 728.64
threshold=5.5344860500000008 1.6748179000000001 8.0296825000000016 9.6524540000000023 4.5000000000000009 7.1745256500000005 5.8445378500000009 1.5000000000000002 2.7320443500000002 952.50000000000011 1.2210830500000001 1.5000000000000002 7.5722375000000008 1175.5000000000002 11.915792000000001 7.5085432500000016 3.9497609000000007 9.6688765000000014 9.7300000000000018e-08 11.731865000000001 3.8542126500000005 6.6258983500000008 1.5000000000000002 6.7790603000000011 6.5656415000000008 10.064469000000001 6.7690167000000008 48156.500000000007 873.50000000000011 12.500000000000002
decision_type=2 2 2 2 2 2 2 2 2 2 2 2 2 2 2 2 2 2 2 2 2 2 2 2 2 2 2 2 2 2
left_child=1 3 7 6 8 9 10 18 19 16 -1 25 13 23 -11 -5 21 29 28 24 -12 -6 -18 -9 -3 -4 -8 -16 -2 -13
right_child=2 4 11 15 5 -7 26 12 -10 14 20 17 -14 -15 27 -17 22 -19 -20 -21 -22 -23 -24 -25 -26 -27 -28 -29 -30 -31
leaf_value=-0.183397586237104 0.0071780398114836223 -0.012800794021999577 0.060845940791192134 -0.034994805307462892 -0.070519695637611221 0.053840116884864619 -0.064625744322578768 0.058578181776636165 0.11761441010118101 -0.11723212810295554 -0.15017673527469455 0.16300950756204291 0.11291087527117732 0.015533921231760901 -0.024270393612008567 0.081438142390634904 -0.06672320704522583 0.15573209984180703 0.059946713734972151 0.10255188828043307 -0.093157404982816785 0.077654173058884057 0.019471338162925605 0.099601647573074228 0.10192033114828536 0.11660413637031986 0.079567505486326934 -0.090118721260728979 -0.061143702164188962 0.11684902357604153
leaf_weight=45838.450528879228 3009.046958193212 7066.0798445953405 5354.3146197570168 3704.4503587010549 7505.5590149785858 4781.3131713249022 2760.6628391752747 9936.8458914968796 6484.5741952590179 13971.572433254318 22170.234220315426 4033.5599140245467 9432.6828823079122 12365.50871272209 3814.5047651771456 1959.4548494474438 1612.9767341012484 41513.880886885658 2313.990029882727 1310.9866449697001 3930.5372845555248 477.59733991514076 6578.2727685645514 11030.490600951467 737.08669881825335 5928.7925651190744 483.16110082561499 3813.6808030898683 3901.4256837045541 22464.945714825764
leaf_count=9331361 215923 760746 298375 511947 977933 354689 440707 731112 247512 2698980 4442294 98182 423945 1358509 490652 111352 177965 893663 142644 60491 695838 27194 605597 561772 30955 169703 30257 653658 520035 933608
internal_value=0 -0.0979776 0.103776 -0.151055 -0.0241891 -0.0537767 -0.162832 0.0550037 0.05653 -0.0673984 -0.168229 0.135754 0.0686973 0.0561855 -0.096028 0.00528572 -0.0291657 0.14332 -0.00848098 0.0130694 -0.14159 -0.0616551 0.00249837 0.0801598 -0.00196424 0.0901445 -0.0431484 -0.057191 -0.0313942 0.123875
internal_weight=0 139001 131285 80847 58154.2 42555.5 75183 51990 15598.7 37774.2 71939.2 79295.5 42765.5 33332.8 21599.8 5663.91 16174.4 68012.4 9224.46 9114.15 26100.8 7983.16 8191.25 20967.3 7803.17 11283.1 3243.82 7628.19 6910.47 26498.5
internal_count=28997599 22650128 6347471 15563756 7086372 5986668 14940457 3953940 1099704 5631979 14469493 2393531 3075338 2651393 3843290 623299 1788689 1925453 878602 852192 5138132 1005127 783562 1292884 791701 468078 470964 1144310 735958 1031790
is_linear=0
shrinkage=0.1


Tree=1
num_leaves=31
num_cat=0
split_feature=19 34 34 18 7 34 7 41 7 21 19 21 6 40 41 44 18 44 3 18 41 45 40 8 45 41 44 43 11 34
split_gain=199358 44879.1 34235.8 16992.4 12558.8 12259.7 11861.9 8307.63 10553.2 5157.42 4891.41 4390.57 3463.63 3115.85 2881.39 3184.21 2638 2594.39 2059.58 2014.73 1886.38 1873.51 1638.25 1631.93 1611.32 2396.51 1511.35 1472.05 1373.8 1279.82
threshold=1.4457056500000003 6.2370491500000016 4.5139436000000002 11.127513500000001 3.9315911500000005 11.981009500000001 3.7015385000000003 672.50000000000011 8.4580455000000025 7.3518855500000013 3.6169997500000002 6.5399546500000012 9.0269452500000025 1.5000000000000002 3128.5000000000005 16254809.000000002 8.6288665000000027 22207559.000000004 10.694232000000001 5.5824078000000013 245.50000000000003 145.50000000000003 1.5000000000000002 10.402709500000002 12.500000000000002 672.50000000000011 18518940.000000004 4.2820000000000004e-07 26.707453500000003 9.6688765000000014
decision_type=2 2 2 2 2 2 2 2 2 2 2 2 2 2 2 2 2 2 2 2 2 2 2 2 2 2 2 2 2 2
left_child=2 3 4 6 11 7 9 20 14 13 22 19 -4 27 15 -9 -15 -10 -8 -1 -3 -16 -5 -6 -7 -26 -22 -2 -18 -19
right_child=1 5 12 10 23 24 18 8 17 -11 -12 -13 -14 16 21 -17 28 29 -20 -21 26 -23 -24 -25 25 -27 -28 -29 -30 -31
leaf_value=-0.16541582324723253 -0.12159878358625859 0.083221576998449134 -0.033372811742315704 -0.032037737104441952 -0.039428771058200612 0.12422320972156403 0.0033691716679319092 0.0062707978040006862 0.03890413025106184 0.013496422980295856 0.10019882604565911 0.026057655244921592 0.053244585377851955 -0.080231632750691534 -0.077832523704677248 0.043516302925262228 -0.022644809881915959 0.071593442984611955 0.066833703875929434 -0.13440440981842511 0.047600740923048786 -0.0039894289564808205 0.026178647178954524 0.070084664421345491 0.10045831764375163 0.057098468755124712 0.085296977890355716 -0.028534282702421143 -0.06427197613709619 0.11823904349406394
leaf_weight=55319.862361537642 11907.033799545083 27284.114696367527 21472.775346694019 5666.3137113421981 4209.9402611354599 10444.901975295274 15885.733339323604 81858.354514580962 16725.317575630208 9269.1184209033963 8813.2278674528352 1380.2654008749814 5880.9819965849165 25299.408119626285 5275.3432614474441 31898.32996224027 21947.527169618901 14964.992666326812 7540.8046986316913 33718.821850108099 73630.627314388141 9853.5830690389121 32901.242292767914 2010.5602167828474 28631.844933801854 22975.642264722963 12431.461688911921 1982.636482926202 12411.573848723259 9691.2423007425969
leaf_count=6873795 1650024 180611 970890 587517 243437 35915 594740 1862007 223948 432479 185943 64141 45098 2533034 97920 575592 1517745 66182 142057 5129532 865827 344806 1737419 35808 112545 170781 83460 209002 1395587 29825
internal_value=0 0.0281549 -0.113517 -0.0168172 -0.141473 0.0481419 -0.039027 0.0393329 0.0253688 -0.0567983 0.0329849 -0.150928 -0.0147503 -0.0656574 0.011262 0.0167148 -0.0557259 0.0693053 0.0237979 -0.153672 0.0603096 -0.029738 0.0176255 -0.00403237 0.088404 0.0811545 0.0530459 -0.108315 -0.0376818 0.0899277
internal_weight=0 499290 123993 153625 96639.5 345666 106244 283613 170267 82817.3 47380.8 90418.9 27353.8 73548.2 128886 113757 59658.5 41381.6 23426.5 89038.7 113346 15128.9 38567.6 6220.5 62052.4 51607.5 86062.1 13889.7 34359.1 24656.2
internal_count=28997667 15634966 13362701 10985547 12346713 4649419 8474668 4330178 3200280 7737871 2510879 12067468 1015988 7305392 2880325 2437599 5446366 319955 736797 12003327 1129898 442726 2324936 279245 319241 283326 949287 1859026 2913332 96007
is_linear=0
shrinkage=0.1


Tree=2
num_leaves=31
num_cat=0
split_feature=34 19 34 8 42 43 18 37 7 33 43 27 25 36 16 26 44 45 25 19 41 7 41 10 18 41 2 17 33 45
split_gain=175678 48819.1 27519.9 15431.1 12165.7 5668.07 5372.8 4480.84 3299.23 2513.72 3494.9 2418.05 2345.4 2308.95 2210.31 2175.91 2164.66 2078.77 1869.61 1569.18 1557.8 1515.93 1502.85 1384.38 1327.23 1250.5 1512.58 1244.65 1161.52 1144.61
threshold=4.9266815500000005 1.7939788000000001 8.723349500000003 4.4762077500000013 3.5000000000000004 4.7420000000000005e-07 6.3816916500000014 7.4415560000000012 0.68102745000000009 35.660466000000007 2.5683500000000002e-06 2.1635030500000005 8.4436275000000016 63.502317500000011 12.724721000000001 15.824560000000002 21181515.000000004 23.500000000000004 5.485768750000001 1.5743188000000001 1006.5000000000001 8.3283700000000014 614.50000000000011 17.050341000000003 8.6644820000000013 4792.5000000000009 6.5000000000000009 102.50000000000001 16.875138500000002 158348.50000000003
decision_type=2 2 2 2 2 2 2 2 2 2 2 2 2 2 2 2 2 2 2 2 2 2 2 2 2 2 2 2 2 2
left_child=1 3 5 6 22 7 18 12 14 10 16 23 19 29 27 -8 20 21 -1 -2 28 -5 -3 24 -7 -12 -27 -6 -4 -9
right_child=2 4 9 17 8 11 15 13 -10 -11 25 -13 -14 -15 -16 -17 -18 -19 -20 -21 -22 -23 -24 -25 -26 26 -28 -29 -30 -31
leaf_value=-0.14926897096114902 -0.05688843892538395 0.087725992736233604 0.002513175370680389 -0.023540217028742882 -0.060717006113691685 -0.016857385691742464 -0.10733290089547967 0.021454303000829109 0.0057919087378772586 0.088364604726068954 0.098940445406453095 0.081492850996484387 0.10018081137720408 0.082146429848649644 -0.025859356635989997 -0.01334593738264481 -0.16305757615768426 -0.053874716299445728 0.013153650820485236 -0.013692082595223771 0.034818304984273317 0.074014336463125649 0.029850923003866433 0.065393118566038202 0.041789950275359949 -0.065198698687639264 0.069558119270474658 -0.11163855603619517 0.061920192127598299 -0.0034293085577890067
leaf_weight=64724.116452156974 10143.400912048222 5805.2571602180833 3419.9846415175125 3561.3166352782282 15456.551807330485 8130.9717402964598 38240.136522049375 56797.905725442877 10833.089654239884 37719.473312629969 25797.364242527867 13184.876959343441 1639.2418998287176 5179.3799018554273 13974.60177936501 2632.8256684692169 466.36642647127155 9259.6299868092756 716.53861257829703 49201.023638036335 34872.736899764335 2881.8811545784702 19754.665465256985 6698.4870536600938 7344.1442717299797 937.45467356417794 7471.6889892239124 6962.1116844560602 87392.245226784609 27404.693489449623
leaf_count=9203707 649497 69748 27260 206474 1465143 225072 5902014 1404575 529673 254201 80438 129867 30412 29176 1198600 189075 8626 636775 28494 2310924 640819 28419 674294 60171 158747 23927 29358 1125285 680308 995752
internal_value=0 -0.0773922 0.039208 -0.116057 -0.0125763 0.0115543 -0.129724 0.0030829 -0.042653 0.065137 0.0596734 0.0475799 -0.017816 0.0173418 -0.0570735 -0.101279 0.051986 -0.023524 -0.147491 -0.0210754 0.052784 0.0200935 0.0429957 0.0274146 0.0109753 0.0880241 0.0545354 -0.0765307 0.0596829 0.0133556
internal_weight=0 194803 383801 122016 72786.3 185724 106314 150366 47226.4 198077 160358 35358.5 60983.7 89382 36393.3 40873 126151 15702.8 65440.7 59344.4 125685 6443.2 25559.9 22173.6 15475.1 34206.5 8409.14 22418.7 90812.2 84202.6
internal_count=28996831 21257701 7739130 16194958 5062743 5994193 15323290 5420336 4318701 1744937 1490736 573857 2990833 2429503 3789028 6091089 1357013 871668 9232201 2960421 1348387 234893 744042 443990 383819 133723 53285 2590428 707568 2400327
is_linear=0
shrinkage=0.1


Tree=3
num_leaves=31
num_cat=0
split_feature=34 19 34 42 3 34 18 26 34 5 10 6 16 16 43 18 18 45 34 25 20 18 45 33 41 36 45 36 43 20
split_gain=140545 45764.6 13174.4 11969.3 11187.6 4884.37 3793.58 3167.77 3078.28 2952.58 2254.19 1892.29 1816.92 1800 1721.6 1636.5 1410.14 1403.04 1393.84 1127.24 1115.11 1102.45 1081.61 1246.79 972.081 946.348 926.369 872.575 856.853 820.968
threshold=5.8873752500000007 1.4847848500000003 8.3550435000000025 5.5000000000000009 6.3848277500000004 3.8542126500000005 14.047183000000002 15.343582500000002 10.548776500000002 7.7707700500000012 13.258522500000002 7.9529103500000007 14.838125000000002 11.948794000000001 2.8525000000000004e-07 5.4100244500000008 10.650937500000003 44398.000000000007 7.2751125000000005 7.3660953000000005 1.0000000180025095e-35 9.872600000000002 23.500000000000004 26.400745500000003 419.50000000000006 57.073854500000003 43431.000000000007 57.073854500000003 0.00012883410000000004 3.1348514500000006
decision_type=2 2 2 2 2 2 2 2 2 2 2 2 2 2 2 2 2 2 2 2 2 2 2 2 2 2 2 2 2 2
left_child=1 4 9 6 7 10 11 15 14 12 16 19 18 17 24 -1 -5 -7 26 21 -19 -3 -10 -24 -4 -15 -2 -14 -6 -26
right_child=2 3 8 5 28 13 -8 -9 22 -11 -12 -13 27 25 -16 -17 -18 20 -20 -21 -22 -23 23 -25 29 -27 -28 -29 -30 -31
leaf_value=-0.14293686691204993 0.0008226724665521386 -0.033530333381700514 0.05386680307517755 -0.093322094254090729 -0.043820044802666248 -0.020056794581396194 0.072692578699691868 -0.032181890301664413 0.087549656294782799 0.047089705035669012 0.017545265968744308 0.063609741491682553 0.027521961113425416 -0.0043841866665605654 0.066586651319418697 -0.11452918903287512 -0.046443683766946242 -0.0068809334638326586 0.016481098949674554 0.066915179661503579 -0.079997446691451368 0.0081293296308975506 0.035498338651895493 0.068105654396928714 0.048737257555622193 0.093589235483857003 -0.027611813177036565 0.090805706420239385 0.018832851466555198 0.022572973606985545
leaf_weight=44881.355607994294 30497.918653816218 12336.82004367045 23834.615583853854 23397.925709505129 3848.356681388279 16611.17497766891 10504.214306598078 3442.7355736075842 21916.032584277331 22415.146388980153 2530.8051978485892 4484.3651732337894 13164.403951705492 16513.089427850384 25348.010392775235 36993.893178869504 8841.5281435512588 2649.1878704687988 34120.351366013056 1944.5487538878806 9809.6188367690775 13094.817958421656 14116.62193140958 69255.630690819293 16702.371584092733 1048.5031145595713 18352.246269777883 2610.9354999084608 5043.7470841203467 42527.868289531732
leaf_count=6483564 976324 983737 164532 3400961 236800 1116653 183829 270991 77749 297297 96697 59112 483486 994339 157366 6373580 1130113 187167 869171 30758 1057358 639867 107265 516126 249933 9048 917128 12351 120696 793843
internal_value=0 -0.0625065 0.0406672 -0.0225298 -0.115025 -0.0449644 0.0205771 -0.12615 0.0556024 0.0143248 -0.073332 0.0033949 0.00688728 -0.0238124 0.0437747 -0.130101 -0.0804659 -0.0390829 0.000972537 -0.00646861 -0.0644503 -0.0120797 0.0677811 0.0625846 0.0368134 0.00146525 -0.00985972 0.0379959 -0.00828229 0.0299511
internal_weight=0 217977 334862 123767 94210.1 81401.8 42364.8 85318 213701 121161 34770.3 31860.6 98745.9 46631.6 108413 81875.2 32239.5 29070 82970.5 27376.2 12458.8 25431.6 105288 83372.3 83064.9 17561.6 48850.2 15775.3 8892.1 59230.2
internal_count=28997841 23375270 5622571 9889639 13485631 7992336 1897303 13128135 2066814 3555757 4627771 1713474 3258460 3364565 1365674 12857144 4531074 2361178 2762623 1654362 1244525 1623604 701140 623391 1208308 1003387 1893452 495837 357496 1043776
is_linear=0
shrinkage=0.1


Tree=4
num_leaves=31
num_cat=0
split_feature=34 18 34 10 42 34 7 26 10 19 18 24 3 41 17 18 18 45 34 42 17 38 13 8 7 42 41 33 38 26
split_gain=116390 34505 15926.6 11914.8 8099.42 3366.08 3264.04 3042.41 2844.44 2223.67 2189.94 1871.93 1730.74 1734.01 1729.64 1725.3 1553.19 1277.38 1289.72 1090.88 1075.23 1066.49 964.164 849.729 838.158 805.758 782.332 708.685 1119.38 699.465
threshold=5.0939277000000009 8.307158750000001 7.6792791000000014 10.375513500000002 1.5000000000000002 10.209544250000002 2.3044638000000002 15.693526500000003 12.313401000000002 1.1353279500000002 9.7777307500000017 7.1080089000000006 10.634789000000001 963.50000000000011 87.500000000000014 16.682664000000006 12.161423500000001 23.500000000000004 14.544646500000002 5.5000000000000009 75.500000000000014 66.500000000000014 8.7080367500000033 14.334520000000001 8.3893190000000022 5.5000000000000009 851.50000000000011 26.142835500000004 56.500000000000007 28.195548000000006
decision_type=2 2 2 2 2 2 2 2 2 2 2 2 2 2 2 2 2 2 2 2 2 2 2 2 2 2 2 2 2 2
left_child=1 3 8 7 15 12 11 9 10 -1 22 16 13 27 -12 21 20 -7 -19 -5 -6 -3 -2 -10 -8 -11 -18 28 -4 -23
right_child=2 4 5 19 6 17 24 -9 23 25 14 -13 -14 -15 -16 -17 26 18 -20 -21 -22 29 -24 -25 -26 -27 -28 -29 -30 -31
leaf_value=-0.1335707710572232 -0.0020914001557010954 0.038125899781455586 0.045245423252159495 0.025114015689309058 -0.050059961830088887 0.079810403386273029 -0.0067007683349079071 -0.01932574861252722 0.020317954248936267 -0.074250190950194223 0.022479117083974653 0.032382658252027699 0.05812955855603779 0.010730902637282975 -0.01961193539323166 0.085275094815951899 0.018846104232279517 0.049650288906619724 0.084240395241150012 -0.036671838401251731 -0.087992105139118509 -0.022192123585919266 -0.036172730455616579 0.064903428535561788 0.053546870680408733 -0.10922720723143142 -0.046193020149000875 0.053854600456934555 0.012396582547991634 0.080108385037355997
leaf_weight=49562.21154404337 12177.392697949908 11585.601698246668 25145.5819078575 5319.0270405548799 19054.55875618376 24718.395823311002 7341.8442855002359 3132.2577028218075 25843.226002464275 8489.759153895895 27645.562770819364 2603.7568888117967 27556.434091413335 32114.420776791376 15092.78919756884 5075.0850389623665 3662.4163022082648 81076.052465870802 12432.225023508712 6175.0973359403433 12294.540956315759 6266.1037944395794 26074.595213521825 5121.7367488029413 3368.5858668570872 29375.375540712994 3736.1060041291057 21769.378701886744 17658.907051567396 748.16035156336147
leaf_count=8148763 617422 355875 227594 142296 1956579 89854 453227 231912 561823 1234355 840783 146051 257457 910467 1147761 54335 221684 685954 60892 371638 2256014 348339 1305868 76357 72290 5098018 559237 281150 274807 8806
internal_value=0 -0.0660373 0.0331106 -0.103989 -0.0148988 0.0475149 -0.0369514 -0.116162 0.00191408 -0.119631 -0.00794179 -0.0496945 0.0360214 0.0297206 0.00761492 0.0335952 -0.0552099 0.0595934 0.0542492 -0.00807978 -0.0649363 0.0194941 -0.0253231 0.0276926 0.012248 -0.101385 -0.0139974 0.0391647 0.0316937 -0.0112805
internal_weight=0 177790 354427 102054 75736.8 242471 52061.8 90559.6 111955 87427.3 80990.3 41351.4 124245 96688.3 42738.4 23675 38747.6 118227 93508.3 11494.1 31349.1 18599.9 38252 30965 10710.4 37865.1 7398.52 64573.9 42804.5 7014.26
internal_count=28997608 21659419 7338189 15226982 6432437 2788175 5665082 14713048 4550014 14481136 3911834 5139565 1951475 1694018 1988544 767355 4993514 836700 746846 513934 4212593 713020 1923290 638180 525517 6332373 780921 783551 502401 357145
is_linear=0
shrinkage=0.1


Tree=5
num_leaves=31
num_cat=0
split_feature=34 19 34 18 7 10 18 45 21 45 18 18 23 42 47 17 7 18 44 28 34 13 40 33 40 42 44 37 42 44
split_gain=96172.5 33737.7 8924.52 8732.05 8013.06 5073.6 2461.53 2383.93 2142.65 1733.83 1970.31 1702.18 1544.16 1429.4 1276.88 1237.4 1213.08 1197.08 1148.4 1105.83 984.604 915.301 876.968 771.107 869.22 761.374 757.84 743.001 727.429 712.611
threshold=6.0286602000000009 1.4773285000000003 9.0584465000000005 12.438605500000003 2.9519895000000003 11.358087500000002 9.5972240000000024 23.500000000000004 7.0134871500000004 23.500000000000004 15.023409000000003 11.610367500000001 2.2575093500000007 3.5000000000000004 3.5000000000000004 59.500000000000007 7.9199512000000007 5.4100244500000008 24754350.000000004 40.663910000000008 4.5374820000000007 9.1729275000000019 1.5000000000000002 23.860340000000004 1.5000000000000002 5.5000000000000009 17025901.000000004 8.3880110000000023 5.5000000000000009 13311573.500000002
decision_type=2 2 2 2 2 2 2 2 2 2 2 2 2 2 2 2 2 2 2 2 2 2 2 2 2 2 2 2 2 2
left_child=1 4 7 5 8 6 12 19 17 -4 23 14 20 -5 -9 -8 -6 -1 -7 -2 25 -16 29 -11 26 -3 -25 -23 -17 -13
right_child=2 3 9 13 16 18 15 11 -10 10 -12 22 -14 -15 21 28 -18 -19 -20 -21 -22 27 -24 24 -26 -27 -28 -29 -30 -31
leaf_value=-0.12961528076679732 0.036923594596731828 -0.048154219083409971 0.069969408999911761 0.054378924055566082 -0.047198476121440937 -0.0014290182891056626 -0.0034815662482316403 0.023912344752031221 -0.01219256940011109 0.021033992165318156 0.06175859878391015 -0.10349651187370089 0.029981621672863723 0.006705274802801209 0.01449880444101543 -0.013675389960536369 0.023803660131039569 -0.1034116225031293 0.056862640972394254 0.10416948837165668 -0.043050322297720961 -0.026414800939393787 0.032937587456367025 -0.024242472066953357 0.0465081933959249 -0.086432069462962335 0.03744190721361447 0.00046908518167448638 -0.056035801995887702 0.0043047428531413868
leaf_weight=38063.419770598382 22421.991671324489 6993.8589105151186 35356.410383538809 13580.09346644039 6259.5705504947691 15192.499625942379 14559.48732119381 18996.163208391401 1982.3834521067183 24079.024331115448 46371.171790134918 685.41512006957782 1756.5802059524576 11714.404102345696 15737.750033496355 5975.2213476633187 3908.9288890802127 32167.842237141027 4346.6719436415005 2744.8033504233172 12897.653414910397 21983.405713067521 34905.630153630686 3427.6296238676296 55660.779739895079 20219.13761021891 4754.3625752172666 19310.738845366956 12607.190688803385 5820.4282964434824
leaf_count=6433852 276063 729092 146070 258288 479725 580787 892919 330899 115309 228649 445260 61061 65549 1016875 476375 423693 71611 6333257 66513 7157 1077578 868794 1013199 74565 528173 3248069 66345 526811 1863157 292864
internal_value=0 -0.0537522 0.034767 -0.0198872 -0.103016 -0.0338489 -0.0456719 0.0163278 -0.114719 0.050267 0.0450798 0.0103425 -0.0617893 0.0323003 0.00145726 -0.0253111 -0.0199042 -0.117613 0.0115385 0.0442577 -0.0658083 -0.00602207 0.026655 0.0362831 0.0420345 -0.0765945 0.0116009 -0.0138429 -0.0424147 -0.00705253
internal_weight=0 202225 312256 119843 82382.1 94548.3 75009.1 142606 72213.6 169649 134293 117440 41867.2 25294.5 76028.1 33141.9 10168.5 70231.3 19539.2 25166.8 40110.6 57031.9 41411.5 87921.8 63842.8 27213 8181.99 41294.1 18582.4 6505.84
internal_count=28998559 23656274 5342285 10222520 13433754 8947357 8300057 3853223 12882418 1489062 1342992 3570003 5120288 1275163 2202879 3179769 551336 12767109 647300 283220 5054739 1871980 1367124 897732 669083 3977161 140910 1395605 2286850 353925
is_linear=0
shrinkage=0.1


Tree=6
num_leaves=31
num_cat=0
split_feature=34 19 18 34 10 3 40 25 7 24 42 44 40 34 45 43 43 18 18 34 44 18 17 44 38 33 33 19 11 40
split_gain=80983.2 31334 7909.27 6077.43 5987.61 5237.88 2288.49 2193.89 1734.45 1690.02 1654.33 1626.01 1457.76 1340.58 1499.89 1297.66 1260.11 1245.29 1192.95 1032.82 995.095 952.578 911.272 841.041 831.615 923.106 744.133 663.122 642.31 625.394
threshold=6.386638500000001 1.3984074500000003 11.682430000000002 9.2504395000000006 11.013695000000002 8.1356650000000013 1.5000000000000002 6.2563824500000011 10.121323500000001 5.7297599500000009 4.5000000000000009 11867253.000000002 1.5000000000000002 13.473020500000002 23.500000000000004 4.7420000000000005e-07 4.945500000000001e-07 10.166203500000002 9.1332135000000019 3.8783420500000001 17013394.000000004 12.344919500000001 128.50000000000003 10079371.000000002 55.500000000000007 16.979096500000004 16.239200500000006 4.4114573000000012 24.361486500000002 1.5000000000000002
decision_type=2 2 2 2 2 2 2 2 2 2 2 2 2 2 2 2 2 2 2 2 2 2 2 2 2 2 2 2 2 2
left_child=1 4 5 8 9 6 15 11 12 19 27 18 20 14 -5 -3 -17 24 -8 -1 -2 -16 -12 -19 -14 -26 -13 -4 -20 -23
right_child=3 2 10 13 -6 -7 7 -9 -10 -11 22 26 17 -15 21 16 -18 23 28 -21 -22 29 -24 -25 25 -27 -28 -29 -30 -31
leaf_value=-0.11811114417112584 -0.047414951399701144 -0.091780331096490406 0.034903077454246742 0.063630801006982346 -0.012629757993368532 0.015608444772883843 -0.069173023696410693 0.019614508672145269 0.049668650575757083 -0.038802041217265444 0.013946082641476218 -0.026475648987296541 0.017765064778819836 0.067562447556024335 0.025797840160440573 0.10398159550434267 -0.056875479980351709 0.020188637729090395 -0.012436466935216037 -0.072528339286081309 0.0063126591120875658 0.019948850786445774 -0.036173372658085096 0.046662655856492236 -0.058921348410041791 0.00028106031658388072 0.027762741562016059 0.087338767274931506 -0.049314754142681855 0.049416660042348425
leaf_weight=56410.604612501105 5859.80822591795 12903.380893565045 13751.410406591021 27969.15751882756 6921.5424042369996 17721.193035398028 22081.25843038685 6341.5665386863693 15614.68984287628 3132.1297624389554 13841.159753941116 16098.067008031299 28311.137556912727 27024.516301920579 41437.937811235111 675.46732092712773 1745.3798470644979 37986.544099597784 7539.6219830349437 5451.0699804027536 8372.7870346127893 8332.5742871217662 4916.2776654742192 17541.112266311829 3103.4675548119703 17400.963494215539 3001.0749265879131 2924.7475120554445 12641.513134325476 53084.893246168678
leaf_count=11137386 382447 2111389 367789 119983 281929 460973 2958487 261857 146090 259923 911224 1611137 462986 134203 413337 38695 225389 1088086 526051 758837 307019 162503 700971 337889 101624 501553 148238 20764 1532797 525862
internal_value=0 -0.0476519 -0.0194535 0.0339852 -0.10105 -0.0337456 -0.0442796 -0.036381 0.0183393 -0.110466 0.0211833 -0.042168 0.0142137 0.047286 0.0430975 -0.0791759 -0.011993 0.0183087 -0.0531112 -0.114095 -0.0158079 0.037514 0.000809898 0.0285517 0.00665729 -0.00867958 -0.0179531 0.0440995 -0.0355371 0.0454187
internal_weight=0 208097 136182 292040 71915.3 100749 83027.3 67703.1 134191 64993.8 35433.6 61361.5 118576 157849 130825 15324.2 2420.85 104343 42262.4 61861.7 14232.6 102855 18757.4 55527.7 48815.6 20504.4 19099.1 16676.2 20181.1 61417.5
internal_count=28997418 24313836 11875761 4683582 12438075 9875013 9414040 7038567 3327694 12156146 2000748 6776710 3181604 1355888 1221685 2375473 264084 2492138 5017335 11896223 689466 1101702 1612195 1425975 1066163 603177 1759375 388553 2058848 688365
is_linear=0
shrinkage=0.1


Tree=7
num_leaves=31
num_cat=0
split_feature=34 18 34 42 7 33 44 34 19 44 26 40 19 3 18 20 45 46 47 4 18 18 38 4 38 18 41 45 13 22
split_gain=69379.4 24063 9727.27 6579.45 6537.74 2161.74 2414.21 1965.8 1804.96 1789.11 1624.08 1580.26 1338.91 1144.51 1068.04 1065.65 995.389 987.037 996.598 980.794 951.439 921.496 856.704 828.911 814.872 798.842 771.774 726.274 645.613 645.027
threshold=5.3787882500000004 7.6595411500000008 8.1584675000000022 5.5000000000000009 1.8856327500000003 29.631882000000001 24754350.000000004 3.4611047500000005 3.1041911500000006 18474676.000000004 15.110415000000001 1.5000000000000002 1.8933247000000002 9.5292580000000005 8.0262135000000026 7.2609316500000007 158348.50000000003 1.0000000180025095e-35 6.5000000000000009 3.7440567000000002 5.7893111500000005 10.3730685 66.500000000000014 15.807994000000003 51.500000000000007 12.963922500000001 340.50000000000006 773.50000000000011 41.50377300000001 1.5000000000000002
decision_type=2 2 2 2 2 2 2 2 2 2 2 2 2 2 2 2 2 2 2 2 2 2 2 2 2 2 2 2 2 2
left_child=1 4 9 8 10 6 21 15 23 11 20 -2 -13 -6 -11 19 -9 -8 -19 28 -1 -4 -23 -3 27 -26 -7 -14 -5 -28
right_child=2 3 5 7 13 26 17 16 -10 14 -12 12 24 -15 -16 -17 -18 18 -20 -21 -22 22 -24 -25 25 -27 29 -29 -30 -31
leaf_value=-0.12038401736666714 -0.040410856712367389 -0.0080070497345490193 0.010458642685602881 -0.078215493989836349 -0.047070518092481244 0.070677692841203274 0.024727190938150415 -0.010138647877000445 0.0506803825963551 0.00024426916097625688 -0.029699413435646319 -0.021140671115639938 -0.013205374781082744 0.020033383861090406 0.040422330048809241 0.063156288013452647 -0.048994169129600584 0.077634078762812253 0.029917539560007644 -0.01495606652814342 -0.094989528334650311 0.038600070583468281 0.013608757031126401 0.038936546025383101 -0.006652976170467415 0.025982657495683043 0.061428305876489481 0.037288139035321001 0.026116491740145766 0.039649982742851489
leaf_weight=37010.388187817472 10202.031390981079 19112.382981360803 33060.965901623917 17897.947585890681 8073.8519585942995 18538.914206883986 7670.2108255387284 20060.806342336786 10701.528822364402 10531.344684191834 2608.4310043774312 19644.952660305105 3574.9869751962833 3709.4672700093943 17797.234823242266 659.24424003434251 9820.6657353636401 17940.10945276203 5789.6194835308706 3219.4688071668497 24533.837708550345 44984.397955876164 19734.20413362002 4683.1229910444235 30859.30398193383 9908.5070507584605 20987.96847907576 14019.286904453475 613.44161779864226 38632.83820657403
leaf_count=7436245 846563 1486906 410313 3547066 720217 81497 47011 1706100 158097 211872 240530 934705 98835 82856 361907 24963 1219310 56075 41520 300423 5252151 582695 385550 95762 1214454 421307 160448 341128 34782 496119
internal_value=0 -0.0533014 0.0267379 -0.017325 -0.09441 0.0397306 0.0317881 -0.0396953 0.0165715 0.00362188 -0.106985 -0.0033998 0.00144064 -0.0259458 0.0254859 -0.0620985 -0.0229087 0.0559121 0.0659921 -0.0658983 -0.110261 0.0240411 0.0309796 0.00123178 0.00904161 0.00127903 0.0528576 0.0270283 -0.0747581 0.0473165
internal_weight=0 162705 323877 86768.6 75936 207339 129180 52271.6 34497 116538 64152.7 88209.1 78007 11783.3 28328.6 22390.1 29881.5 31399.9 23729.7 21730.9 61544.2 97779.6 64718.6 23795.5 58362.1 40767.8 78159.7 17594.3 18511.4 59620.8
internal_count=28997407 22305408 6691999 8573409 13731999 2261228 1523164 6832644 1740765 4430771 12928926 3856992 3010429 803073 573779 3907234 2925410 144606 97595 3882271 12688396 1378558 968245 1582668 2075724 1635761 738064 439963 3581848 656567
is_linear=0
shrinkage=0.1


Tree=8
num_leaves=31
num_cat=0
split_feature=34 19 18 8 34 7 18 25 6 25 33 18 33 43 40 18 33 44 45 42 17 4 17 41 8 7 44 41 25 17
split_gain=59972.7 24836.9 6702.41 4811.2 4628.39 3729.73 2029.45 1701.43 1600.49 1471.4 1414.29 1362.73 1195.65 1047.62 986.202 903.684 869.222 841.291 822.809 773.268 710.535 672.154 718.882 644.282 1535.97 600.796 584.582 579.538 557.441 543.68
threshold=6.5086515000000009 1.4142751000000002 10.427591000000001 6.973100500000001 9.5582865000000012 0.7842489250000001 14.780536500000002 6.2563824500000011 9.8059657500000021 4.8699796000000006 15.507338500000001 12.635235500000002 39.242073500000011 4.7420000000000005e-07 1.5000000000000002 5.1219914000000015 24.268536000000001 24754350.000000004 65669.500000000015 5.5000000000000009 98.500000000000014 22.895794000000006 59.500000000000007 2474.5000000000005 11.643054000000001 10.221503 16550461.500000002 907.50000000000011 7.9119581500000011 80.500000000000014
decision_type=2 2 2 2 2 2 2 2 2 2 2 2 2 2 2 2 2 2 2 2 2 2 2 2 2 2 2 2 2 2
left_child=1 3 5 9 8 7 14 10 11 15 19 18 13 16 26 -1 -6 -7 -2 -3 -13 22 -16 -15 -25 -5 -4 -18 -9 -21
right_child=4 2 6 25 12 17 -8 28 -10 -11 -12 20 -14 23 21 -17 27 -19 -20 29 -22 -23 -24 24 -26 -27 -28 -29 -30 -31
leaf_value=-0.11840448410382046 0.012131452447708718 -0.041843668267738873 -0.074018158951923041 -0.028760528707753509 0.013689886392219916 -0.014979838976992097 0.04672517989001948 -0.016350548179561528 0.039533880007397527 -0.034292731869139635 -0.022488101852410673 0.0422257003753852 0.064852176161731154 0.068458329171335361 0.020448849445358644 -0.092840167113247885 0.044504148839232573 0.026159165389020148 -0.0091813807775269329 -0.064128222053518383 0.0089441674269522108 0.044810431320435107 -0.010829739918204495 -0.055386117460401389 0.052173732281779198 0.043590619465391583 -0.01171301211408279 0.025208455389468198 0.056353050110149211 -0.094005907868345506
leaf_weight=27938.208487193551 57704.648356629012 10653.850719142312 2523.2813701999257 5359.9827424015675 17511.095357089187 17094.398585147603 11821.87607094273 4301.4921577646019 25614.714679497527 3039.8266588851984 9893.0944084599178 18636.440335330437 20930.688604231691 16534.058087988087 11991.122870208841 27378.046667188872 50096.915214704932 7009.1584651380253 26401.92441858651 19548.083093767927 9781.5991192726651 4006.4698212591466 18975.979935458745 1539.066154086031 9664.8324459571159 1460.4405036413955 3734.9277709545568 22581.689736843167 1397.1355162510299 8846.766622295152
leaf_count=5659262 1240042 1147226 403063 249539 163505 924749 445467 243473 298448 262779 798831 361446 132088 59798 532425 6492283 361140 167228 905238 2779085 511416 102304 1753789 29421 38908 17771 406822 380132 36770 2092503
internal_value=0 -0.0422454 -0.0172744 -0.0927409 0.0299335 -0.0357846 0.010199 -0.0502394 0.0169735 -0.102029 -0.0562608 0.0118379 0.0428264 0.038917 -0.000273685 -0.105752 0.03369 -0.00301688 0.00544113 -0.0648172 0.0307701 0.00626849 0.001282 0.0559126 0.0373984 -0.0132682 -0.0368342 0.0385089 0.00147423 -0.073437
internal_weight=0 196974 131798 65176.5 276998 78744 53053.7 54640.4 138139 58356.1 48941.8 112525 138858 117928 41231.8 55316.3 90189.7 24103.6 84106.6 39048.7 28418 34973.6 30967.1 27738 11203.9 6820.42 6258.21 72678.6 5698.63 28394.8
internal_count=28996951 24515369 11833735 12681634 4481582 8189865 3643870 7097888 3316590 12414324 6817645 3018142 1164992 1032904 3198403 12151545 904777 1091977 2145280 6018814 872862 2388518 2286214 128127 68329 267310 809885 741272 280243 4871588
is_linear=0
shrinkage=0.1


Tree=9
num_leaves=31
num_cat=0
split_feature=34 19 18 10 34 4 42 45 18 34 25 25 17 4 18 3 46 42 7 18 40 43 43 33 38 45 45 13 45 47
split_gain=51347.4 23241.7 6347.2 4032.14 3792.29 3689.43 2365.07 1753.07 1658.28 1643.46 1175.14 1076.12 940.832 746.871 725.213 721.031 709.955 691.029 684.942 667.25 638.322 905.61 621.927 607.273 638.747 874.548 675.381 601.285 597.373 584.045
threshold=6.8217010000000009 1.3380244000000003 9.9676295000000028 11.544517500000001 10.905634000000001 4.8112368500000011 5.5000000000000009 23.500000000000004 10.940420500000002 4.4157873500000013 5.7394232500000006 4.3187105500000014 106.50000000000001 3.7440567000000002 13.458344000000002 11.412663500000003 1.0000000180025095e-35 3.5000000000000004 8.7449515000000009 18.789865000000002 1.5000000000000002 1.0000000180025095e-35 1.4715000000000002e-07 16.349383000000003 53.500000000000007 727.50000000000011 43431.000000000007 48.122427500000008 48156.500000000007 6.5000000000000009
decision_type=2 2 2 2 2 2 2 2 2 2 2 2 2 2 2 2 2 2 2 2 2 2 2 2 2 2 2 2 2 2
left_child=1 5 3 9 7 11 19 16 23 10 17 27 14 -14 -8 -5 -2 -3 -7 -4 21 -10 -19 -9 25 -25 -27 -1 -11 -18
right_child=4 2 6 15 -6 18 12 8 20 28 -12 -13 13 -15 -16 -17 29 22 -20 -21 -22 -23 -24 24 -26 26 -28 -29 -30 -31
leaf_value=-0.10848816357995128 0.017800746723977107 -0.034316810298126839 0.024216109931294121 -0.009457728922079519 0.047143607105669505 -0.049619514279178684 -0.0059695671202499474 -0.019537564615402903 -0.15827690898598504 -0.018420938473487605 0.014969978760355865 -0.046462214845429915 -0.046753620742961674 0.0070242782053117105 0.035941314349378507 0.03192812744318501 0.059117234063312686 -0.081733197898616411 0.01352050265964096 0.075250581824055807 0.029270420118642605 0.0083178309879408715 -0.040222396752869038 -0.010678556356404967 -0.002001609206007515 0.049383968171868201 0.010055906515419065 0.013268284550200722 -0.04894757735189894 0.024528932000663833
leaf_weight=43976.076644594054 9334.1912215421908 5005.1035693182494 22327.949128401931 14139.695674279967 82455.97208153375 6214.8510780450015 24152.164360581213 9307.7258251417661 336.84000129468041 16208.112781618343 1789.500439163181 3104.1548655202787 9068.5536759300157 3610.7246396556147 4979.9884123842348 5994.3313254240202 18668.329436722794 21838.515502548136 2374.5142044704407 2893.9460753512685 69611.505619187083 10429.211124695721 4323.8596440567053 6709.9346136677486 28493.565505727631 9729.699368351954 7921.878818161902 409.37454106556834 10604.672236354367 6610.6026364488062
leaf_count=10618303 87964 633243 874249 511740 579346 588725 1708873 184925 34473 1077638 99374 341718 1552997 267434 271843 103191 103304 4571209 38746 30847 1372501 411685 668053 91913 751336 104245 162668 37021 1041509 77029
internal_value=0 -0.0377069 -0.0168041 -0.0358406 0.0294281 -0.0924759 0.00588739 0.0211824 0.0162804 -0.0488786 -0.0638353 -0.103384 -0.00870134 -0.0314391 0.00119488 0.00286373 0.0413695 -0.0683599 -0.0321646 0.0300718 0.0257658 0.00310554 -0.0748727 0.00401554 0.00816322 0.0200521 0.0317339 -0.107365 -0.0304945 0.0500722
internal_weight=0 203016 146937 79903.8 259609 56079 67033.3 177153 142540 59769.8 32957 47489.6 41811.4 12679.3 29132.2 20134 34613.1 31167.5 8589.37 25221.9 80377.6 10766.1 26162.4 62162.8 52855.1 24361.5 17651.6 44385.5 26812.8 25278.9
internal_count=28998102 25036713 13412200 8705957 3961389 11624513 4706243 3382043 3113746 8091026 5971879 10997042 3801147 1820431 1980716 614931 268297 5872505 627471 905096 1818659 446158 5239262 1295087 1110162 358826 266913 10655324 2119147 180333
is_linear=0
shrinkage=0.1


Tree=10
num_leaves=31
num_cat=0
split_feature=34 18 34 4 18 3 33 43 25 10 40 25 18 34 18 7 33 40 27 16 43 40 44 43 16 47 46 47 26 44
split_gain=44597.5 18354.5 6398.07 5043.45 4888.73 2403.84 1526.64 1591.49 1451.97 1276.72 1248.36 1128.96 1106.85 1048.67 1021.88 822.281 755.773 746.682 706.82 681.081 688.912 685.286 673.306 619.044 580.8 574.996 574.269 621.837 531.556 523.066
threshold=5.8873752500000007 7.5285685000000013 8.4938695000000006 4.9484617000000011 12.963922500000001 9.142825000000002 33.582390000000011 4.7420000000000005e-07 7.6546797500000006 15.633061500000002 1.5000000000000002 6.2563824500000011 8.931377000000003 3.8783420500000001 9.4256530000000023 6.9475167000000004 21.183944 1.5000000000000002 2.3754718000000001 16.913482000000005 4.7420000000000005e-07 1.5000000000000002 17327267.000000004 1.0500000000000003e-09 6.7069435000000004 5.5000000000000009 1.0000000180025095e-35 6.5000000000000009 30.570674000000004 23517025.000000004
decision_type=2 2 2 2 2 2 2 2 2 2 2 2 2 2 2 2 2 2 2 2 2 2 2 2 2 2 2 2 2 2
left_child=1 3 9 11 5 8 7 16 10 12 22 13 18 24 23 -5 -4 -18 -2 20 21 -14 -3 -12 -1 -16 -9 -28 -6 -11
right_child=2 4 6 15 28 -7 -8 26 -10 29 14 -13 19 -15 25 -17 17 -19 -20 -21 -22 -23 -24 -25 -26 -27 27 -29 -30 -31
leaf_value=-0.1135969413080717 -0.032300282765801325 -0.086961334465005702 0.0025261145698172644 -0.048462572609620724 0.026308101247352479 0.020552686725193253 0.050545330997241615 0.026689360306172236 0.04347075122561847 0.01439404540708571 -0.054344346331233188 0.011244101347752484 -0.032549821197801303 -0.062951315112403136 0.00097370696525018422 0.0036710923817359583 0.00053549232514613142 0.030002741209761576 -0.00083477298306903081 0.038133240797390833 0.034937848851052763 0.003445335608997545 -0.03753181226963434 -0.020268793259627479 -0.09003882096276801 -0.028046206795826235 0.065671490741582531 0.030470317515510666 0.089389497028607545 0.046470879565853947
leaf_weight=27799.497006294441 15149.028949064203 6412.6441847676178 15164.31445899485 7047.1288557274529 17295.032775692467 9755.7718745886523 45467.274446540338 9206.9473136828456 2418.5307837743312 14999.970272626393 17193.594379681221 944.241352480356 6080.587781425711 6944.3026897861419 11699.560980116075 5301.3137290652085 9677.0010260276904 77205.590503049461 13501.787195045705 6100.1406703321263 5931.9568418522831 40634.905108042687 4832.4167879242159 7727.4296375623089 16783.213028993116 16396.227015673066 18077.090700845889 6946.8905456562061 1447.6267606348265 7689.7537037811126
leaf_count=7262155 606023 1393750 183197 744552 936739 264629 371702 62557 73504 351905 2683829 44976 486559 1169263 836326 137302 248835 946938 363828 215677 114457 1487806 763638 854200 4231862 1965061 69785 58090 12306 55798
internal_value=0 -0.0425386 0.0231543 -0.0835807 -0.0145877 -0.0258103 0.0346781 0.0293842 -0.0325935 0.00412958 -0.0354562 -0.0971125 -0.00135749 -0.0990981 -0.0290372 -0.0260811 0.0231253 0.0267207 -0.0174721 0.00650149 0.00283639 -0.00123987 -0.0657196 -0.0437783 -0.104728 -0.0159618 0.0480428 0.0558993 0.0311803 0.0252652
internal_weight=0 159999 291833 64819.7 95178.8 76436.2 181745 136278 66680.4 110088 64261.9 52471.3 87398.4 51527 53016.8 12348.4 102047 86882.6 28650.8 58747.6 52647.4 46715.5 11245.1 24921 44582.7 28095.8 34230.9 25024 18742.7 22689.7
internal_count=28997249 23374092 5623157 13590110 9783982 8834937 1941104 1569402 8570308 3682053 8496804 12708256 3274350 12663280 6339416 881854 1378970 1195773 969851 2304499 2088822 1974365 2157388 3538029 11494017 2801387 190432 127875 949045 407703
is_linear=0
shrinkage=0.1


Tree=11
num_leaves=31
num_cat=0
split_feature=34 19 18 7 33 7 44 34 42 18 41 10 23 24 18 45 20 25 44 39 25 18 3 17 44 40 41 18 44 10
split_gain=39029.2 18744.1 5528.65 3342.16 3273.49 2897.76 2417.43 1510.52 1402.36 1243.47 1107.87 1040.44 1280.84 1023.4 852.83 884.879 732.731 720.02 691.705 610.813 608.328 588.543 548.839 612.902 523.656 879.34 514.42 508.978 502.551 488.092
threshold=6.9099946000000001 1.3380244000000003 11.260408500000002 4.5764528500000008 27.031326500000002 1.9190848 24754350.000000004 4.4157873500000013 3.5000000000000004 15.876156500000002 740.50000000000011 16.033433000000006 0.92830593500000014 5.6425401000000006 18.789865000000002 65669.500000000015 2.6093296000000001 6.8626735000000005 24754350.000000004 1.5000000000000002 8.7218705000000014 4.9353195000000012 11.337669250000003 69.500000000000014 18594659.000000004 1.5000000000000002 1338.5000000000002 8.5916310000000014 19388146.000000004 17.180014000000003
decision_type=2 2 2 2 2 2 2 2 2 2 2 2 2 2 2 2 2 2 2 2 2 2 2 2 2 2 2 2 2 2
left_child=1 5 3 7 6 13 10 8 -3 22 -2 12 26 21 15 -6 -12 27 -5 -17 24 -1 23 -4 25 -9 -8 -10 -26 -7
right_child=4 2 9 18 14 29 11 20 17 -11 16 -13 -14 -15 -16 19 -18 -19 -20 -21 -22 -23 -24 -25 28 -27 -28 -29 -30 -31
leaf_value=-0.11315841880558981 0.018716054642850297 -0.015415542397122717 0.018086398239126892 -0.0081376169162604272 0.043730706762715482 -0.044099667167580077 0.018933742682054541 -0.073350084493434789 -0.077338547969709653 0.048858375192203957 0.016843464371367908 0.052332103579923642 0.045564427552725946 -0.036572841112973355 0.062272393718543963 0.047551559377465726 -0.0091220673999839377 0.03701286810045129 0.02727183827836821 0.015657325415502056 0.064997302538584198 -0.088626076944184479 0.050687728866717387 -0.0097751143777386317 0.042038255050343892 -0.024352125868402769 -0.043986513344582284 -0.051223921413793241 -0.020265140279693283 0.016916425967149592
leaf_weight=19993.766810905126 58326.975367623701 8098.6385733928328 14244.822181329771 16471.47481679573 56463.327498922474 6416.9100395461573 2112.6399063198478 4253.249659275345 15284.439046826446 8528.2363423534553 15494.14912625443 22428.483025478432 6622.2741645683709 2617.4550042182091 14460.787736740662 7858.0715796357836 36399.807148193795 714.20165848286706 8294.9400043539936 25457.350160494912 749.81745666847564 19141.330071493128 2568.8508004336618 17713.883732663759 2015.2128748771502 26379.207300533846 3375.4680356316676 14585.190982836764 3620.8702464673552 1647.6629663209023
leaf_count=5010045 758848 826658 627476 636385 585767 534543 15075 614070 3466835 282241 405176 99660 34322 245846 125497 77173 1246884 30194 139558 401916 17656 5798595 74426 1745477 85597 1980717 77441 2807145 202641 42688
internal_value=0 -0.0336612 -0.015317 -0.0281655 0.0262231 -0.0865109 0.0164934 -0.0385978 -0.0524164 0.0146639 0.00925944 0.0395785 0.0159586 -0.0971105 0.0397349 0.0361047 -0.00136945 -0.0622143 0.00372196 0.0231802 -0.024158 -0.101159 0.00621798 0.00264348 -0.0260013 -0.0311554 -0.0197654 -0.0645869 0.00201179 -0.0316335
internal_weight=0 193340 143523 100467 248999 49817.1 144760 75700.8 38682.5 43055.8 110221 34538.9 12110.4 41752.6 104240 89778.7 51894 30583.8 24766.4 33315.4 37018.4 39135.1 34527.6 31958.7 36268.5 30632.5 5488.11 29869.6 5636.08 8064.57
internal_count=28996552 25168793 13537076 10807456 3827759 11631717 2637406 10031513 7130832 2729620 2410908 226498 126838 11054486 1190353 1064856 1652060 6304174 775943 479089 2900681 10808640 2447379 2372953 2883025 2594787 92516 6273980 288238 577231
is_linear=0
shrinkage=0.1


Tree=12
num_leaves=31
num_cat=0
split_feature=19 34 34 18 7 3 18 45 37 42 5 25 16 33 38 45 40 33 44 18 45 45 24 46 47 21 45 25 44 13
split_gain=34523.9 11076 8867.18 3712 2856.56 2578.9 1883.21 1580.41 1470.88 1500 1470.42 1237.88 885.893 753.475 742.827 729.873 704.692 701.184 672.835 661.279 623.282 614.273 586.078 567.985 679.239 528.75 516.852 514.685 504.914 499.259
threshold=1.5659875500000002 7.791160500000001 4.4639745000000008 13.079399500000003 1.0341562000000002 9.0954530000000009 14.780536500000002 23.500000000000004 6.2689527500000013 5.5000000000000009 6.5122457500000008 6.2563824500000011 6.7069435000000004 25.610717500000003 62.500000000000007 773.50000000000011 1.5000000000000002 22.261009500000004 15541450 17.174485000000001 158348.50000000003 12.500000000000002 6.9790528500000013 1.0000000180025095e-35 6.5000000000000009 1.4427066500000001 553.00000000000011 6.148931000000001 24754350.000000004 41.50377300000001
decision_type=2 2 2 2 2 2 2 2 2 2 2 2 2 2 2 2 2 2 2 2 2 2 2 2 2 2 2 2 2 2
left_child=2 3 4 5 11 8 7 23 9 22 17 12 -1 14 15 26 -11 -4 27 -5 -10 -6 -2 -3 -25 -22 -9 -18 -7 -14
right_child=1 6 10 19 21 28 -8 13 20 16 -12 -13 29 -15 -16 -17 18 -19 -20 -21 25 -23 -24 24 -26 -27 -28 -29 -30 -31
leaf_value=-0.10852769335442941 -0.015968473461513588 0.0198285199031434 -0.040519255194547119 0.018260386955210105 -0.00020537038402291511 0.0054991630408671409 0.044806580203160806 0.016456390062714911 4.5251079236684601e-05 -0.073320971436132296 0.017188822862871409 0.040723339673575998 -0.082178593045321296 0.0256608803165796 -0.010384573735452887 0.024217331262330232 -0.048547113450584316 0.0068078553874397017 -0.0063833325578701826 0.055472649640491589 0.013492527435579797 -0.05531404591959365 0.037068770810569425 0.061232873136973343 0.023686128290849887 -0.034944762528690991 -0.027038562818113183 0.010228926844528113 0.036487031072741517 0.023553653548495489
leaf_weight=24363.591882265308 18101.448466622562 8063.5809066763104 15019.497059440007 21921.853022578231 3836.8043386891368 15093.683797520527 55528.513500096247 5289.1630077623413 32739.134513440949 6593.4171167111781 9711.6675840090902 672.9231834183156 18240.492580588612 55383.097506235063 14392.692763917381 29601.725833361561 22095.64254898642 3954.7752066911489 5724.7219983998511 6105.4322482790449 2823.407207337732 4277.7697770457744 2354.5084605954471 16945.780474248946 6732.2882475371589 11168.421350269171 5651.0065403000335 1597.5628831741633 8069.223290906637 457.80073799466481
leaf_count=7472393 1429491 55291 1211838 1201924 229566 423148 668282 68075 1334492 1550786 126797 24528 5288302 772328 357972 405328 3464796 116787 634000 178069 127570 564291 64659 66363 55820 815242 69761 97009 78955 43026
internal_value=0 0.0135108 -0.0590678 -0.00655736 -0.0837488 -0.01386 0.0291914 0.0230877 -0.0206282 -0.0314889 -0.0144574 -0.0938592 -0.0959623 0.01743 0.00913192 0.0160604 -0.0437728 -0.0306549 -0.0371502 0.0263667 -0.00750469 -0.0292571 -0.00986381 0.0427511 0.0505574 -0.0251706 -0.00601038 -0.044584 0.0162944 -0.0795899
internal_weight=0 351976 80535.3 154388 51849.4 126361 197588 142059 103198 56467.3 28685.9 43734.8 43061.9 110318 54934.6 40541.9 36011.3 18974.3 29417.9 28027.3 46731 8114.57 20456 31741.6 23678.1 13991.8 10940.2 23693.2 23162.9 18698.3
internal_count=28996889 13919361 15077528 11400141 13622106 10020148 2519220 1850938 9518045 7240741 1455422 12828249 12803721 1673464 901136 543164 5746591 1328625 4195805 1379993 2277304 793857 1494150 177474 122183 942812 137836 3561805 502103 5331328
is_linear=0
shrinkage=0.1


Tree=13
num_leaves=31
num_cat=0
split_feature=18 34 34 18 7 4 5 34 33 26 26 42 45 18 16 7 33 42 44 38 43 40 47 20 45 13 17 38 26 23
split_gain=30719.8 9739.43 8943.19 3219.67 2950.22 2140.05 1786.34 1475.52 1264.45 1053.6 998.113 975.278 944.049 848.051 695.153 692.778 688.843 668.568 582.066 535.662 517.311 538.646 510.046 513.727 536.243 497.029 459.255 446.551 408.356 403.922
threshold=7.8598180000000015 4.4639745000000008 8.1584675000000022 11.758980500000002 1.0341562000000002 17.261876000000004 7.3953580000000008 12.83572275 15.607944500000002 19.442154000000006 15.110415000000001 4.5000000000000009 23.500000000000004 12.856455000000002 6.5662901500000013 8.3283700000000014 17.188644500000006 5.5000000000000009 24754350.000000004 54.500000000000007 9.7300000000000018e-08 1.5000000000000002 3.5000000000000004 1.0000000180025095e-35 2641.5000000000005 10.524187750000001 59.500000000000007 45.500000000000007 30.038407500000005 1.0931747500000002
decision_type=2 2 2 2 2 2 2 2 2 2 2 2 2 2 2 2 2 2 2 2 2 2 2 2 2 2 2 2 2 2
left_child=1 4 3 5 10 8 16 12 9 17 14 -5 -4 25 -1 -6 19 -2 -7 -3 21 -13 -10 -24 -25 -14 -19 -23 -29 -20
right_child=2 6 7 11 15 18 -8 -9 22 -11 -12 20 13 -15 -16 -17 -18 26 29 -21 -22 27 23 24 -26 -27 -28 28 -30 -31
leaf_value=-0.10769936227822799 -0.019493496850209978 -0.028530709023815101 0.041747048965889877 0.037745344994528168 -0.046706462681082285 0.0016553905848145038 0.01531073998401225 0.047923213848505467 0.018903706982179889 0.031695031524898575 -0.0094621266647226601 -0.031856446213763066 0.025626676169584611 0.029855271936080181 -0.081226982454669194 0.014951651743559884 -0.010315092315238073 -0.034146870676398447 0.016971814506773569 -0.066162300112001415 0.038970170222553807 0.043218653882880181 0.0096700822789446764 0.0024008421886648184 -0.029877182142819592 0.0065036254422940858 -0.060720536188500818 0.00067534467735670591 0.072638495907171793 0.063622936238531158
leaf_weight=21320.277515578662 13982.4515080118 9862.1388031167589 26758.349456191238 15834.917740037723 6330.5968372320349 16815.322885389876 13065.195695750706 34136.640376293566 5869.5542946693313 2354.0647420538589 1399.4855269709951 3867.5187114799337 20300.968192929402 55789.488576717733 18550.532118245847 2558.8422263993125 10841.479855941099 13891.385828911734 4922.571626847086 6135.9722946216643 4605.3152624964132 3184.8635092161712 7536.4136825643363 7355.3912314874178 17142.047749819656 41124.16103409286 12228.679002342018 22038.347830641404 817.79142430599313 2979.2675501420163
leaf_count=7054440 1269268 513066 154690 405576 788032 514620 140312 194580 161940 94920 132426 532298 265192 882556 5487670 46842 448637 1760082 67170 674144 221798 130092 344411 359633 1236449 640775 3012341 1421769 25385 16058
internal_value=0 -0.0518826 0.0139345 -0.00359448 -0.0812135 -0.0135573 -0.0150142 0.0292311 -0.0214721 -0.0333243 -0.0924691 0.0171979 0.0247991 0.0209301 -0.0953827 -0.0289581 -0.029776 -0.037141 0.012175 -0.0429641 0.0077707 0.0029666 -0.00819617 -0.0131617 -0.0201857 0.0128238 -0.0465879 0.0081384 0.00325018 0.0345609
internal_weight=0 90064.5 333536 155426 50159.7 105077 39904.8 178110 80360 42456.6 41270.3 50348.8 143973 117215 39870.8 8889.44 26839.6 40102.5 24717.2 15998.1 34513.8 29908.5 37903.4 32033.9 24497.4 61425.1 26120.1 26041 22856.1 7901.84
internal_count=28997172 15285569 13711603 11573810 13509410 8836892 1776159 2137793 8239044 6136611 12674536 2736918 1943213 1788523 12542110 834874 1635847 6041691 597848 1187210 2331342 2109544 2102433 1940493 1596082 905967 4772423 1577246 1447154 83228
is_linear=0
shrinkage=0.1


Tree=14
num_leaves=31
num_cat=0
split_feature=18 34 34 7 18 5 7 18 47 26 33 40 44 18 45 38 25 44 3 13 18 43 45 45 45 7 41 46 10 39
split_gain=27163.3 12269.3 5298.61 3096.98 2321.73 2189.04 1825.8 1372.93 1072.51 993.438 970.645 937.804 1032.76 873.515 796.976 688.851 644.162 604.567 595.613 581.209 623.626 577.784 516.298 504.979 828.031 498.513 665.455 486.513 479.795 475.163
threshold=8.7761915000000013 4.4898450500000004 9.0584465000000005 1.0341562000000002 13.884959500000003 7.2407888500000013 6.6806466500000008 6.3476912000000008 3.5000000000000004 25.483806500000004 19.146953500000006 1.5000000000000002 10079371.000000002 17.174485000000001 43431.000000000007 53.500000000000007 5.9040685000000002 17013394.000000004 8.8325980000000026 9.969591000000003 10.709010250000002 0.00012883410000000004 727.50000000000011 24558.500000000004 25787.500000000004 11.776138000000001 294.50000000000006 1.0000000180025095e-35 25.614679500000005 3.5000000000000004
decision_type=2 2 2 2 2 2 2 2 2 2 2 2 2 2 2 2 2 2 2 2 2 2 2 2 2 2 2 2 2 2
left_child=1 3 4 7 6 10 8 16 -2 11 15 17 19 14 23 -3 -1 -10 -5 -13 -21 22 -7 25 -25 26 29 -23 -8 -4
right_child=2 5 13 18 -6 21 28 -9 9 -11 -12 12 -14 -15 -16 -17 -18 -19 -20 20 -22 27 -24 24 -26 -27 -28 -29 -30 -31
leaf_value=-0.10101928996207353 0.02188265593268365 -0.018971940799820217 0.056046362817382955 -0.045159896242102038 0.03028166061119332 -0.02871010932488214 0.017991857138214426 -0.064593498634544042 -0.06390698434898244 0.023463660558636721 -0.0013993994531977627 0.0043549865236390687 0.0079148112510684428 0.048475031505766542 0.016325541011916977 -0.049252222336318367 0.037623060773947996 -0.019382933250970444 0.0010212136480429671 -0.037884701642775645 -0.012490479130427177 -0.0034302674181358769 0.016698402639929603 0.1087024635121428 0.033988090749279547 0.048666005573593296 0.021036365620369785 0.041506921758280357 0.057282128667881183 -0.023098129682552419
leaf_weight=25805.231864849065 11439.914925462435 16324.481540544031 9360.5539279213845 6790.8474946219794 28008.487855636107 4285.4913347277907 18186.456330657762 20376.267548966596 5489.2818404003337 7861.3897804295411 14448.129019180051 9751.6074892111646 23459.549675384464 24376.350930573593 40172.968563701608 13918.385176071592 339.53149320668308 6862.0411803497409 4743.6050866188016 16357.109704028117 23657.156043920259 3258.1826382944128 6023.2551781808434 2304.4710483327508 4162.8704945808859 13108.746240926906 40468.69077117405 9246.6903208293661 3748.6718291501747 825.47564572794363
leaf_count=8867737 337605 768646 37808 899298 1175674 70574 365625 5584907 1005659 277346 448300 652009 1363759 227809 522189 1274599 11888 796200 133979 1749264 1604632 25099 95696 10273 46778 70088 452612 50587 65131 5455
internal_value=0 -0.0388446 0.016845 -0.0725523 0.00422447 -0.00985518 -0.00153063 -0.0840529 -0.0070181 -0.0105565 -0.0227213 -0.0136817 -0.00938236 0.0313422 0.0275594 -0.0329075 -0.0992188 -0.0391707 -0.0261677 -0.0175362 -0.0228712 0.015349 -0.00217856 0.0339853 0.0606106 0.0312847 0.0267867 0.0297984 0.0247065 0.0496325
internal_weight=0 125560 289602 58055.5 154822 67504.6 126813 46521 104878 93438.1 44691 85576.7 73225.4 134780 110404 30242.9 26144.8 12351.3 11534.5 49765.9 40014.3 22813.6 10308.7 70230.8 6467.34 63763.5 50654.7 12504.9 21935.1 10186
internal_count=28997226 18231310 10765916 15497809 9392904 2733501 8217230 14464532 7786474 7448869 2491545 7171523 5369664 1373012 1145203 2043245 8879625 1801859 1033277 4005905 3353896 241956 166270 623014 57051 565963 495875 75686 430756 43263
is_linear=0
shrinkage=0.1


Tree=15
num_leaves=31
num_cat=0
split_feature=18 34 34 18 7 45 8 36 18 18 34 12 40 10 17 42 27 44 42 39 42 39 25 20 45 20 38 44 33 22
split_gain=24352.4 8291.91 6774.61 2649.09 2509.12 1799.85 1574.39 1161.51 1156.99 1145.82 1084.98 785.139 692.517 688.254 911.439 683.792 676.782 674.083 642.625 607.81 675.077 591.693 497.289 796.893 544.174 464.905 463.782 459.702 456.842 449.783
threshold=8.0262135000000026 4.5139436000000002 8.891213500000001 10.822949500000002 5.4252088500000006 23.500000000000004 10.736782000000002 8.9736785000000019 5.5491390000000012 15.876156500000002 11.646835500000002 7.3039422500000013 1.5000000000000002 7.1710229000000014 73.500000000000014 3.5000000000000004 1.9733209500000004 13363531.000000002 5.5000000000000009 1.5000000000000002 5.5000000000000009 2.5000000000000004 7.6546797500000006 2.9465517000000001 158348.50000000003 6.1877110000000011 53.500000000000007 23204810.000000004 28.732379000000005 2.5000000000000004
decision_type=2 2 2 2 2 2 2 2 2 2 2 2 2 2 2 2 2 2 2 2 2 2 2 2 2 2 2 2 2 2
left_child=1 4 3 5 8 16 11 15 25 13 12 -3 17 14 -5 -7 -2 -4 -10 -16 -21 -22 23 -9 -25 -1 29 -8 -28 -14
right_child=2 6 10 9 -6 7 27 22 18 -11 -12 -13 26 -15 19 -17 -18 -19 -20 20 21 -23 -24 24 -26 -27 28 -29 -30 -31
leaf_value=-0.10249018171897567 0.0062998452858124381 -0.0063338565257799245 -0.087007144500472491 0.014576577342793343 -0.0090744669217721549 -0.010120118226831841 -0.013541529880791423 0.0045903917414348572 -0.037772440656182821 0.04142739088933934 0.039751548401922646 -0.037497668019922409 0.030172046487042845 0.02668294110013858 0.020525524413919277 -0.049438224311226499 0.054582996198229886 0.0047247732350212913 -0.077129687976249195 0.0091927601185643627 -0.047775605906466248 -0.0080060391102764489 0.01442173474643502 -0.015111723244362467 -0.044183197053142803 0.026908948088555665 0.0080543129154540174 0.035575435831931033 0.028166294367470958 0.070649228128232475
leaf_weight=19430.453199564094 9465.8800614154607 14009.143831930589 890.38379109627567 29933.109911649051 5155.3060845817527 6232.0011311763956 2641.1655672350025 15278.880016781492 5516.9354539253254 11734.238896931842 56516.848743351627 19115.431387613753 31491.604294291203 15081.252356049488 4988.197903233231 15239.886620700083 4187.2523994281655 7986.3347684522159 16727.590556299241 6324.36211732222 8243.0689258473285 6849.7883710123715 6949.8800725246401 23316.616156919656 8895.1359596548282 281.67735953535885 22161.455394142933 6841.324667364941 23032.15850052482 3007.4232307521161
leaf_count=6831652 335852 744613 36395 1129248 216649 518512 50758 732665 1377067 424034 382479 1054760 249728 532912 372693 3241235 30286 194967 5506046 343576 988057 692659 195357 1213032 864854 24842 341122 40184 305728 26233
internal_value=0 -0.0460004 0.0129959 -0.000385595 -0.0749112 -0.0123186 -0.0140328 -0.0183304 -0.0830007 0.0124675 0.028926 -0.0243178 0.0220181 0.00770936 0.00263033 -0.0380265 0.0211077 -0.00447644 -0.0673686 -0.0109119 -0.0182339 -0.0297265 -0.0105621 -0.0142183 -0.0231397 -0.100641 0.0249692 0.0218948 0.018304 0.0337006
internal_weight=0 89719 317806 172720 47112 89565.5 42607.1 75912.4 41956.7 83154 145086 33124.6 88569.4 71419.8 56338.5 21471.9 13653.1 8876.72 22244.5 26405.4 21417.2 15092.9 54440.5 47490.6 32211.8 19712.1 79692.6 9482.49 45193.6 34499
internal_count=28998195 15846571 13151624 11614972 13956256 7131793 1890315 6765655 13739607 4483179 1536652 1799373 1154173 4059145 3526233 3759747 366138 231362 6883113 2396985 2024292 1680716 3005908 2810551 2077886 6856494 922811 90942 646850 275961
is_linear=0
shrinkage=0.1


Tree=16
num_leaves=31
num_cat=0
split_feature=34 18 18 34 4 7 18 6 18 45 25 25 36 28 43 18 44 43 40 43 41 10 42 36 38 20 38 18 7 11
split_gain=22049.1 11696.9 3669.15 2238.76 2207.57 1979.28 1392.16 754.543 847.453 720.215 734.304 695.244 653.541 651.331 555.973 667.069 526.596 488.436 663.628 482.687 467.069 449.116 491.111 706.964 463.579 428.198 422.364 409.144 407.688 399.764
threshold=7.1344418000000003 6.7615605000000008 9.7330180000000031 10.209544250000002 3.9234932000000007 0.7842489250000001 14.395820500000001 10.783481500000002 11.9958255 23.500000000000004 9.3125195000000023 4.4906909000000006 8.6743900000000025 16.310950000000002 4.7420000000000005e-07 15.876156500000002 24754350.000000004 4.7420000000000005e-07 1.5000000000000002 5.6470000000000007e-07 7490.5000000000009 6.8467430000000009 3.5000000000000004 8.4436077500000017 32.500000000000007 1.3548456000000002 60.500000000000007 4.8586905000000007 8.6241687500000008 22.901642000000002
decision_type=2 2 2 2 2 2 2 2 2 2 2 2 2 2 2 2 2 2 2 2 2 2 2 2 2 2 2 2 2 2
left_child=1 4 5 7 11 12 9 8 -2 -4 21 27 13 -3 15 -5 -7 18 -14 -19 -16 22 26 24 -24 -25 -11 -1 -6 -18
right_child=3 2 6 14 28 16 -8 -9 -10 10 -12 -13 17 -15 20 -17 29 19 -20 -21 -22 -23 23 25 -26 -27 -28 -29 -30 -31
leaf_value=-0.10511413386817473 0.0017064219162596973 -0.059468540870134014 0.036223789247730391 0.021250320490019424 -0.045567911825761101 -0.016294510973125224 0.031208616454499533 0.030453663258535692 0.020277439961323137 0.031993207539635041 0.063654448100975355 -0.04000270568231068 -0.076260479317185131 0.019977793315934182 0.052382379391489625 0.040393626754634961 0.032176864027881828 0.091872166744524142 -0.027879231665422485 -0.013117168600027269 0.0057348911825209391 0.0092467267811113529 0.098460349565805655 0.0146244035193768 -0.046334086774975504 -0.017334795518831814 -0.014428708106917138 -0.080594284425696494 -0.00010274747743463631 -0.016424748492071182
leaf_weight=13121.111118775665 66056.158892316729 18940.551479705689 4171.4127093317511 49708.53054793815 7111.235237101806 14922.685029965302 14208.106888771261 18621.192161647356 39127.09218277238 3916.6355202425621 1433.5643688903656 2792.0199485270132 3358.6464051326693 1091.4015554779035 17938.292952317643 28719.531952053774 5087.8945751274878 577.05988133081701 18188.221975576467 1815.8664462087327 2438.2221489162184 10771.721902032121 226.74837629127433 5446.6891877944581 8901.5139919282665 18203.497183830783 3923.0946304723038 14137.606229135341 2729.2394320512685 2535.929864771213
leaf_count=4779584 1408852 5134712 164241 484608 691973 906376 622358 216204 1037185 157700 34286 327504 607463 65937 79631 249757 80319 20585 1721396 115064 22032 553722 19207 338656 1750153 1545288 264537 5446375 46992 103822
internal_value=0 -0.0263847 -0.0125733 0.0208583 -0.0740674 -0.0294606 0.00320294 0.0118994 0.00861465 -0.00377852 -0.00693746 -0.0875291 -0.0418126 -0.0551401 0.032084 0.0282604 -0.005371 -0.0306606 -0.0354207 0.0122013 0.0468006 -0.00890668 -0.0137209 -0.0190984 -0.0427374 -0.00997452 0.00876313 -0.092397 -0.0329582 0.0160104
internal_weight=0 177612 137721 222609 39891.2 66518.3 71203 123804 105183 56994.9 52823.5 30050.7 43971.7 20032 98804.6 78428.1 22546.5 23939.8 21546.9 2392.93 20376.5 51389.9 40618.2 32778.4 9128.26 23650.2 7839.73 27258.7 9840.47 7623.82
internal_count=28996519 25498250 14205822 3498269 11292428 8755674 5450148 2662241 2446037 4827790 4663549 10553463 7665157 5200649 836028 734365 1090517 2464508 2328859 135649 101663 4629263 4075541 3653304 1769360 1883944 422237 10225959 738965 184141
is_linear=0
shrinkage=0.1


Tree=17
num_leaves=31
num_cat=0
split_feature=18 34 18 45 4 6 33 18 25 33 18 38 38 25 40 43 42 47 25 43 46 39 42 36 17 44 44 46 11 47
split_gain=19804.2 8974.88 3949.54 2541.4 2464.48 1901.25 1841.7 1365.71 954.327 930.34 803.484 630.93 624.762 586.604 579.864 930.406 522.123 494.09 490.792 476.853 451.965 432.214 471.976 580.404 422.16 432.067 410.383 400.262 389.732 387.537
threshold=9.0139495000000025 4.4639745000000008 13.594547500000003 23.500000000000004 3.9234932000000007 8.6220890000000008 20.768494000000004 6.1538553000000009 9.3125195000000023 17.076992000000004 20.431696000000006 58.500000000000007 58.500000000000007 5.5764418000000004 1.5000000000000002 1.0000000180025095e-35 6.5000000000000009 7.5000000000000009 5.9755817000000011 0.00012883410000000004 1.0000000180025095e-35 1.5000000000000002 5.5000000000000009 11.085238500000001 57.500000000000007 15796308.000000002 17071351.000000004 1.0000000180025095e-35 21.372736000000003 5.5000000000000009
decision_type=2 2 2 2 2 2 2 2 2 2 2 2 2 2 2 2 2 2 2 2 2 2 2 2 2 2 2 2 2 2
left_child=1 4 3 17 7 9 8 18 11 12 14 21 -3 -9 15 -4 -6 27 -1 -7 -21 -5 -23 -24 -16 -26 -17 -2 -11 -8
right_child=2 5 10 6 16 19 29 13 -10 28 -12 -13 -14 -15 24 26 -18 -19 -20 20 -22 22 23 -25 25 -27 -28 -29 -30 -31
leaf_value=-0.096614425467417206 0.019293941097175183 -0.024204433270943383 -0.15401131500866763 0.013989901604692599 -0.0036719563802136718 -0.0039782828355390204 0.018137443763377777 -0.062398383600658573 0.066002198088974368 0.0010113653712707934 0.058174188603667722 -0.022044659422223625 -0.05855953430603731 0.0082307263427913481 0.04301112500469402 -0.0085657984063551348 -0.04669976062943651 0.0052288564046033712 0.037782495330592088 -0.0055507499245693662 0.036227981851723788 0.0091945467495718278 -0.050907303432578412 -0.0080783045304579377 0.021969236131759176 0.044258274354171928 0.031516116343406807 0.048829825426664329 -0.02616313189773628 0.0037753639322892574
leaf_weight=19637.725984944744 6411.3606535375002 17154.326335428985 349.26465947373072 10541.986255529788 6165.5255702354189 9058.1989308158809 42322.39746086298 19710.539729983764 1583.6686058342457 17067.589503583204 10144.104882249201 34419.603664348673 7655.7193232799618 1250.525765930026 22363.091704232211 4986.2926626061089 5197.5812519896135 4843.7916020046396 275.53082146443194 3471.62639461871 10189.01531077089 8007.9383618846477 4504.9544478342868 10630.98957910233 41731.430359565595 10986.628431552555 5237.5780949936016 16135.242243807937 7640.1945163282508 33786.611180623586
leaf_count=8338558 91883 945681 37697 536719 410604 151985 721397 6394310 25698 542695 111777 3590321 883118 91471 214617 242997 642680 133703 8944 25825 55748 335764 895971 565511 1069277 181779 183628 152170 438620 972869
internal_value=0 -0.0329722 0.0152697 0.00625756 -0.0645487 -0.010138 0.00100707 -0.076001 -0.0107384 -0.0211269 0.0315622 -0.0125228 -0.0348055 -0.0581847 0.0284105 0.00648491 -0.0233532 0.0342057 -0.0947548 0.0138133 0.0256106 -0.0027936 -0.0104384 -0.0208256 0.0314982 0.0266143 0.0119677 0.040431 -0.00739159 0.0117618
internal_weight=0 124474 268987 173189 52237.4 72236.7 145798 40874.3 69689.1 49517.8 95798.4 68105.5 24810 20961.1 85654.3 10573.1 11363.1 27390.4 19913.3 22718.8 13660.6 33685.9 23143.9 15135.9 75081.2 52718.1 10223.9 22546.6 24707.8 76109
internal_count=28994017 18930239 10063778 8022006 15886567 3043672 7644250 14833283 5949984 2810114 2041772 5924286 1828799 6485781 1929995 464322 1053284 377756 8347502 233558 81573 2333965 1797246 1461482 1465673 1251056 426625 244053 981315 1694266
is_linear=0
shrinkage=0.1


Tree=18
num_leaves=31
num_cat=0
split_feature=18 34 34 18 10 18 7 43 40 33 44 27 30 7 25 43 44 47 44 42 10 41 45 18 28 46 42 47 13 45
split_gain=17794.7 8919.82 3046.41 2497.95 2030.93 1448.05 1331.3 983.985 1089.76 926.242 786.222 704.458 666.902 643.794 590.621 578.546 570.583 547.932 646.965 522.25 507.271 483.924 461.119 456.422 425.497 405.157 397.433 392.732 391.462 373.705
threshold=9.5516055000000026 4.5139436000000002 9.5582865000000012 5.687056000000001 14.794919500000001 16.254883000000003 0.7842489250000001 4.7420000000000005e-07 1.5000000000000002 19.146953500000006 24754350.000000004 2.7137405000000006 17.085816000000005 8.6241687500000008 5.7394232500000006 4.945500000000001e-07 13249875.000000002 3.5000000000000004 10768167.000000002 8.5000000000000018 25.873281000000002 819.50000000000011 12.500000000000002 11.535039000000003 53.106218500000004 1.0000000180025095e-35 3.5000000000000004 5.5000000000000009 41.50377300000001 29740.500000000004
decision_type=2 2 2 2 2 2 2 2 2 2 2 2 2 2 2 2 2 2 2 2 2 2 2 2 2 2 2 2 2 2
left_child=1 3 5 13 9 7 14 8 16 11 -6 -3 20 28 26 -9 -2 -10 23 29 21 -4 -8 -19 -17 -12 -5 -27 -1 -13
right_child=2 4 12 6 10 -7 22 15 17 -11 25 19 -14 -15 -16 24 -18 18 -20 -21 -22 -23 -24 -25 -26 27 -28 -29 -30 -31
leaf_value=-0.095829001540016404 -0.085765182137835655 -0.036407536698284164 0.029102316576232901 -0.030683731270567262 -0.0037520568706933873 0.039990363953391811 0.01664246955718951 0.1110829226401689 0.027138384877221245 -0.0022545534210493844 0.0018230590471714403 0.015362347980477788 0.050702931748154212 4.1385557674052687e-05 0.0025575788096885241 0.017569818601516071 -0.019556889399483041 -0.013205938564003834 0.016425000165164429 -0.046371014155449648 0.04524990750004422 0.013085347781777557 -0.028752483141096897 0.0036374287022961078 0.081544002938130106 0.05445276380420299 -0.065328707101928493 0.015038465529237169 0.011887046489674806 -0.038010041567297675
leaf_weight=17165.641142274297 1462.4862175775779 27582.981909865255 52572.33396089224 3921.3283195404219 12907.110534290208 11812.21723818974 3374.2736604548991 773.09392184473109 9040.7103796507872 22287.603147366928 3759.8320479264949 6932.7211840236596 12571.684973224008 764.41997397503292 1608.7300729986309 13853.023663625121 11835.795103185344 28350.008950878502 21267.418986259669 2541.0241275916342 12150.0978083464 29418.91744965571 6643.1100695736241 37197.162413313374 1124.0048214765848 6852.3118420691171 21280.467436467763 4006.0396646173031 344.15164616235415 1618.0734779826016
leaf_count=7266596 267743 2162189 395897 906156 271255 395015 159932 23148 170561 698929 29398 113574 69888 12956 102905 470167 1314698 2114126 978531 151223 95862 480001 714782 1810094 4093 28914 7610046 32414 57960 88132
internal_value=0 -0.0279799 0.0164078 -0.0595644 -0.00831199 0.00652435 -0.0445662 0.00335945 -1.2098e-05 -0.0184918 0.0142341 -0.0278491 0.02907 -0.0897901 -0.0561881 0.0267254 -0.0268382 0.00370956 0.00126973 -0.0065661 0.0261811 0.0233553 -0.0134616 -0.00364755 0.022371 0.030115 -0.059938 0.0399114 -0.0937119 0.00526265
internal_weight=0 143590 243429 55102.1 88487.7 136716 36827.9 124904 109154 60962.4 27525.3 38674.8 106713 18274.2 26810.5 15750.1 13298.3 95855.3 86814.6 11091.8 94141.3 81991.3 10017.4 65547.2 14977 14618.2 25201.8 10858.4 17509.8 8550.79
internal_count=28997185 20407361 8589824 16831333 3576028 7548176 9493821 7153161 6655753 3214047 361981 2515118 1041648 7337512 8619107 497408 1582441 5073312 4902751 352929 971760 875898 874714 3924220 474260 90726 8516202 61328 7324556 201706
is_linear=0
shrinkage=0.1


Tree=19
num_leaves=31
num_cat=0
split_feature=18 18 10 6 37 33 18 18 25 43 40 44 28 7 47 38 23 40 42 18 44 33 38 12 45 44 45 38 42 13
split_gain=16179.9 5993.84 4618.75 3460.41 2155.93 1995.63 1003.84 931.817 892.621 1020.41 954.672 687.266 624.474 621.815 546.797 540.225 481.769 405.565 399.335 390.453 377.706 376.013 426.772 368.538 348.989 369.575 424.626 337.921 335.127 320.768
threshold=7.5285685000000013 12.537381250000001 10.930524000000002 10.214075500000002 8.0215440000000005 15.920101500000003 17.853719000000002 5.4100244500000008 8.5302535000000024 4.7420000000000005e-07 1.5000000000000002 24754350.000000004 3.0077934000000002 10.318646000000003 6.5000000000000009 51.500000000000007 1.3103595000000001 1.5000000000000002 7.5000000000000009 10.064875500000001 13273238.000000002 25.610717500000003 66.500000000000014 7.4051382500000011 145.50000000000003 15376294.000000002 25443.500000000004 69.500000000000014 8.5000000000000018 38.132993500000005
decision_type=2 2 2 2 2 2 2 2 2 2 2 2 2 2 2 2 2 2 2 2 2 2 2 2 2 2 2 2 2 2
left_child=2 3 5 4 8 7 12 29 9 10 28 -5 27 23 -14 24 -11 20 -9 -17 -16 22 -6 -4 -12 -26 -27 -3 -2 -1
right_child=1 6 13 11 21 -7 -8 18 -10 16 15 -13 14 -15 17 19 -18 -19 -20 -21 -22 -23 -24 -25 25 26 -28 -29 -30 -31
leaf_value=-0.097320212949552051 -0.034289046466654406 0.038728362396249646 0.00069737795515348571 0.01228024335795733 0.0055981578824041882 -0.019277108079279681 0.044342066906249505 -0.046713329063784864 0.044403110025027302 -0.008897360484808773 -0.077341382223932484 0.041645746297740094 0.024441287414985108 0.023729566464787313 -0.11720611171617951 -0.033981136038050232 0.028238648956886825 0.011318770236209023 -0.075029456573345546 -0.014773222932960789 -0.012526805133261652 0.01477505285866426 -0.016199932824660822 -0.031522647115933507 -0.0084964470688349107 -0.016309739318292747 0.07370058805586252 0.011499654187890345 -0.07133378125304253 -0.0084820799444364683
leaf_weight=14170.278024095569 4653.4782330731687 24936.722419667538 6457.9429123224836 14746.20873719934 33159.984701987974 7704.0106320420018 24512.718059374078 9522.2941554464705 2229.9860963467509 10588.294520992189 657.71278854018601 17343.354415602604 39619.058958735041 5069.8037292700174 377.62477125410805 26072.592830723064 5213.4891678925487 26910.96837172989 10441.890743219185 17813.612874986182 3952.4808689180645 25974.87131409139 12318.212280644446 7883.9284051272843 15681.854567233808 906.60947141985525 1242.2511254864803 5577.2571410519886 5138.8206555209908 418.43772226229339
leaf_count=6450732 720354 544382 213140 247343 649319 479061 339755 2457166 46890 785493 61604 80420 755419 42558 57945 3642909 89866 864646 4110913 1714896 277940 455901 464576 305232 1277581 65950 57037 240506 1417227 82957
internal_value=0 0.00919396 -0.0467515 -0.00184452 -0.00779901 -0.0653001 0.0261823 -0.0755616 -0.0180777 -0.0196616 -0.0247013 0.0281513 0.0217912 -0.0063732 0.0166408 -0.0201441 0.00335494 0.0067484 -0.0615235 -0.0261846 -0.0216558 0.00517627 -0.000306067 -0.0170144 -0.00580581 -0.00316712 0.035725 0.0337516 -0.0537295 -0.0947721
internal_weight=0 319628 61668.6 193741 161652 42256.9 125887 34552.9 90198.7 87968.7 72166.9 32089.6 101374 19411.7 70860.1 62374.6 15801.8 31241.1 19964.2 43886.2 4330.11 71453.1 45478.2 14341.9 18488.4 17830.7 2148.86 30514 9792.3 14588.7
internal_count=28999718 14857959 14141759 11777366 11449603 13580829 3080593 13101768 9879807 9832917 8957558 327763 2740838 560930 1955950 6819977 875359 1200531 6568079 5357805 335885 1569796 1113895 518372 1462172 1400568 122987 784888 2137581 6533689
is_linear=0
shrinkage=0.1


Tree=20
num_leaves=31
num_cat=0
split_feature=18 34 34 7 18 7 9 26 33 16 37 44 18 47 31 12 45 18 17 39 10 42 39 12 44 44 40 42 46 42
split_gain=14472.5 5381.51 4256.7 1837.29 1668.96 1230.56 1152.66 873.875 869.529 752.121 724.55 714.34 652.322 632.619 508.269 479.306 461.86 410.6 396.843 440.455 440.96 352.884 349.933 342.456 341.905 329.079 539.831 312.363 310.46 300.009
threshold=8.3783290000000026 4.3227073000000011 9.3493945000000007 1.0341562000000002 11.9958255 7.7166480000000002 11.892352500000003 13.799538000000002 37.171093000000006 6.3448445500000004 7.6712726500000015 24754350.000000004 17.174485000000001 4.5000000000000009 2.7205070500000006 6.8956441500000016 12.500000000000002 13.197363000000001 80.500000000000014 1.5000000000000002 11.731865000000001 5.5000000000000009 2.5000000000000004 11.139336500000002 21059079.000000004 16787835.000000004 1.5000000000000002 5.5000000000000009 1.0000000180025095e-35 5.5000000000000009
decision_type=2 2 2 2 2 2 2 2 2 2 2 2 2 2 2 2 2 2 2 2 2 2 2 2 2 2 2 2 2 2
left_child=1 3 4 7 6 10 13 9 11 -1 15 17 18 -2 29 -3 -5 -4 -6 -20 21 23 -23 -21 -7 26 -16 -11 -13 -15
right_child=2 5 8 16 12 24 -8 -9 -10 27 -12 28 -14 14 25 -17 -18 -19 19 20 -22 22 -24 -25 -26 -27 -28 -29 -30 -31
leaf_value=-0.098452914713853534 -0.00017495429702278113 -0.014247273964818494 0.0094024148783565416 0.0032069847039351931 0.018207152401251533 -0.012953869060803883 0.014263519501709315 -0.0059450686237541061 0.041694424923078378 -0.041654470928151228 -0.0046169322595632006 0.016236265936805799 0.040977139002386039 -0.017877790974435686 -0.06741114129794927 -0.04489343118399669 -0.043206697008568481 0.02399601935359584 0.027208535988649474 0.040440054929629904 0.022940004008371258 -0.039280837028219162 -0.0037695168615513525 -0.011281149435312644 0.019532137250305177 0.0023334661623811404 -0.014040666664779764 -0.07349107316159352 0.047754428060278242 -0.044551760419901422
leaf_weight=11955.924651270994 28806.160077214605 7653.4549507866031 38313.783832888177 3788.93463943807 27064.751465389199 4642.5802000940312 20314.161738786861 1717.8906127405353 25242.020183570305 4126.964972003494 12311.644667674533 4196.7905012326009 7635.3287621686759 7547.2460878408019 2042.8700000744866 15316.864209599487 4938.3137294387707 38806.931885177095 5126.6773236627632 2034.8311236433801 4331.8899351001601 6075.8318219521025 5107.6914924239099 3451.7824292341829 10721.848631851739 11235.461379487839 26218.650140509002 12169.079849160866 12240.295299558995 9554.6502647234665
leaf_count=6489942 1464311 655933 449668 237746 828054 93986 359269 246431 191586 1395070 311104 27724 239532 792046 388958 1374686 671401 498492 286897 71970 163177 675125 466513 176574 85641 617159 1812921 5435169 58081 2432537
internal_value=0 -0.0353577 0.0107623 -0.063435 0.000446871 -0.0139048 -0.00714643 -0.0751933 0.0252237 -0.0794041 -0.0241911 0.0207799 0.0136439 -0.0122389 -0.0183789 -0.0346825 -0.0230562 0.0167459 0.00972049 0.000929793 -0.00548495 -0.0128714 -0.0230623 0.0079008 0.00971603 -0.0121433 -0.0178985 -0.0654285 0.0397071 -0.0327803
internal_weight=0 89343.5 285348 38697.1 166548 50646.4 105719 29969.9 118800 28252 35282 93557.8 60828.8 85405 56598.9 22970.3 8727.25 77120.7 53193.5 26128.7 21002 16670.1 11183.5 5486.61 15364.4 39497 28261.5 16296 16437.1 17101.9
internal_count=28997703 16997109 12000594 14475759 10775043 2521350 7867201 13566612 1225551 13320181 2341723 1033965 2907842 7507932 6043621 2030619 909147 948160 2668310 1840256 1553359 1390182 1141638 248544 179627 2819038 2201879 6830239 85805 3224583
is_linear=0
shrinkage=0.1


Tree=21
num_leaves=31
num_cat=0
split_feature=18 34 18 18 8 45 33 3 34 7 45 38 26 42 18 44 45 47 28 4 24 40 44 27 42 45 20 40 45 39
split_gain=13674.9 6153.64 2530.22 2107.56 1649.7 1560.04 1086.92 1005.92 908.06 639.565 567.105 566.62 580.688 560.271 465.925 449.58 421.977 482.244 474.181 411.776 409.914 342.893 479.722 337.568 422.854 345.714 328.733 327.181 321.725 353.333
threshold=9.6883722500000022 4.298518650000001 14.395820500000001 5.9574658000000005 11.899547500000002 23.500000000000004 24.432147000000004 8.3069095000000015 7.4228260500000003 6.8634152000000013 43431.000000000007 58.500000000000007 25.776531000000002 5.5000000000000009 18.789865000000002 24754350.000000004 773.50000000000011 4.5000000000000009 3.0077934000000002 38.779153500000007 5.8472779000000008 1.5000000000000002 10768050.000000002 2.2500455500000007 4.5000000000000009 42540.000000000007 1.0000000180025095e-35 1.5000000000000002 72753.000000000015 1.5000000000000002
decision_type=2 2 2 2 2 2 2 2 2 2 2 2 2 2 2 2 2 2 2 2 2 2 2 2 2 2 2 2 2 2
left_child=1 3 5 9 8 19 11 13 10 20 23 16 -13 -5 -4 -6 -7 -18 -19 -2 -1 -20 -23 25 -25 -3 -12 -15 -8 -30
right_child=2 4 14 7 15 6 28 -9 -10 -11 26 12 -14 27 -16 -17 17 18 21 -21 -22 22 -24 24 -26 -27 -28 -29 29 -31
leaf_value=-0.090397354878147027 0.020239362079848184 -0.026954761950406938 0.025814487397213672 -0.023833124036266015 -0.0050688078237947232 -0.018944570686824855 0.021424960806933138 0.0058673198811388756 -0.0030147578126104996 -0.011972300195817555 -0.016960301223962533 -0.013986772518642525 0.043267923298181299 -0.081425316427443495 0.044334470251664537 0.032663097565328536 0.025203795768585415 0.017424924550700407 -0.043518896347797181 0.047652196979489025 0.017260123070045347 -0.014001303796697768 0.040845247359750557 0.029987983072610355 -0.014750233612385061 0.11448885376962359 -0.051855091428907998 -0.048554589567849693 0.028358357797085079 -0.0023316397455829039
leaf_weight=15171.190727179623 12299.991012606763 18445.520965777971 55586.650716185832 8074.8739068869727 4565.2217060870171 6218.9901053923095 31885.218565984425 4407.294291103186 33358.850918685937 1195.1375883323417 3751.0669930951117 40011.373363268693 1853.4744019888458 3836.4164188102113 17977.553482533898 10243.263338184464 12369.104590983858 9670.7229914542258 2702.4883137503493 9882.1807873192083 362.11717580910772 8326.9726060063695 1972.5110837164102 2797.7639784364728 8627.7298385173926 174.43694664089708 9632.4810764430586 14371.878390917787 4987.7469991201069 15133.671818384028
leaf_count=8030723 252132 1413417 1249764 1668325 90858 273284 513035 155233 589265 37204 335737 3332210 64386 1803598 226819 54334 287551 650935 384026 44173 29607 482947 57364 41917 425282 5692 1182089 4893951 68333 353729
internal_value=0 -0.0246672 0.0150317 -0.0539086 -0.00952909 0.00787295 0.00383829 -0.0383439 -0.0154226 -0.082464 -0.0249533 -0.00325556 -0.0114519 -0.0457575 0.0303404 0.0210309 0.00506083 0.00932115 0.000656364 0.0324518 -0.0878876 -0.0118159 -0.00349734 -0.0173266 -0.00379517 -0.0256297 -0.042075 -0.0554803 0.0151769 0.00527587
internal_weight=0 139015 230879 47418.9 91596.3 157314 135132 30690.5 76787.9 16728.4 43429 83125.6 41864.8 26283.2 73564.2 14808.5 41260.8 35041.8 22672.7 22182.2 15533.3 13002 10299.5 30045.5 11425.5 18620 13383.5 18208.3 52006.6 20121.4
internal_count=28997920 20757232 8240688 16618641 4138591 6764105 6467800 8521107 3993399 8097534 3404134 5532703 3396596 8365874 1476583 145192 2136107 1862823 1575272 296305 8060330 924337 540311 1886308 467199 1419109 1517826 6697549 935097 422062
is_linear=0
shrinkage=0.1


Tree=22
num_leaves=31
num_cat=0
split_feature=18 18 10 10 33 34 34 44 25 18 44 20 47 46 44 40 40 47 20 7 33 47 19 42 12 42 40 42 38 26
split_gain=12293.2 5658.97 2751.48 2287.4 1648.25 1425.32 1074.75 818.555 770.651 664.37 514.315 501.486 496.232 480.347 479.337 477.684 471.37 462.13 411.929 371.633 370.534 367.881 356.107 311.876 274.1 269.662 277.587 264.332 258.407 256.94
threshold=7.0163772000000009 11.260408500000002 13.789332500000002 10.135589500000002 16.462087500000006 11.374229500000002 3.7728533000000004 24754350.000000004 6.6881837500000012 15.553889500000002 18364394.000000004 5.888402000000001 5.5000000000000009 1.0000000180025095e-35 18040426.000000004 1.5000000000000002 1.5000000000000002 5.5000000000000009 0.10714698000000002 10.431473000000002 24.432147000000004 4.5000000000000009 0.88219225000000012 4.5000000000000009 6.8144345000000008 3.5000000000000004 2.5000000000000004 4.5000000000000009 66.500000000000014 42.053859500000009
decision_type=2 2 2 2 2 2 2 2 2 2 2 2 2 2 2 2 2 2 2 2 2 2 2 2 2 2 2 2 2 2
left_child=3 2 4 6 8 9 11 -4 10 12 15 22 27 -9 16 -2 -14 -15 -7 24 21 28 -1 -24 -5 -17 -27 -3 -6 -11
right_child=1 5 7 19 20 18 -8 13 -10 29 -12 -13 14 17 -16 25 -18 -19 -20 -21 -22 -23 23 -25 -26 26 -28 -29 -30 -31
leaf_value=-0.099756050829901965 -0.066312423664656103 0.037823427074519113 0.0010648462710089932 -0.0045305455100216104 0.0069902024718468793 0.046670021861435658 -0.039158083220670444 0.0017310670436564515 0.012452113391905195 0.026050943312854305 -0.012301493221980904 0.023796858991792864 -0.032445284013138904 0.052049782418940906 0.022775789247169987 -0.014960683798935039 0.0020897453772368208 0.017670096792186573 0.027206592815260524 0.013903523480196779 0.0082403510484023151 -0.018448434904486298 -0.038052251944560134 -0.080113452280484082 -0.038132263229517238 -0.040247895466491435 0.010547069195929418 0.014553629825287726 -0.018646666439161391 0.08694559423423473
leaf_weight=7684.1338641039365 5135.7095302560119 5764.0219145702431 25130.179652799226 3785.4195537153428 15002.22109865566 15938.935538864054 9209.422232307661 5298.6130653457367 4129.0680678588396 23870.982675673324 9853.0978652989579 448.30100228221272 4392.1749784693238 8659.8422247417911 10119.464660483267 6323.734301449058 39457.161299096508 7128.1709975009435 34218.186392234609 2981.336612052437 16626.885454943236 21705.984889069652 2202.5392752095504 8831.030389181873 6768.2122759262711 24506.159919844646 1125.2678717389354 31888.20661286125 5327.945818967899 713.61942544102203
leaf_count=4251148 1721602 99450 628146 158697 344445 93223 1273783 47572 124322 706251 1145629 55225 566775 38121 348676 651414 1935313 62491 290067 27054 356800 1342071 1041221 5182170 325258 4861696 182241 864806 265556 5897
internal_value=0 0.00647371 -0.00721175 -0.0510989 -0.0158318 0.0193028 -0.0672339 0.0132556 -0.0289666 0.0132217 -0.0326097 -0.0807245 0.00930499 0.027784 0.00315791 -0.0380045 -0.00136946 0.0365276 0.0333917 -0.0172728 -0.00439646 -0.0093948 -0.0832279 -0.0717171 -0.0260799 -0.033455 -0.0380179 0.0181159 0.000271524 0.0278185
internal_weight=0 322316 155953 41910.4 109736 166363 28375.4 46216.8 51073 116206 46944 19166 91621 21086.6 53968.8 37090.9 43849.3 15788 50157.1 13535 58663 42036.2 18717.7 11033.6 10553.6 31955.2 25631.4 37652.2 20330.2 24584.6
internal_count=28997120 16682564 11772106 12314556 10995776 4910458 11803547 776330 8686904 4527168 8562582 10529764 3815020 148184 2850764 7416953 2502088 100612 383290 511009 2308872 1952072 10474539 6223391 483955 5695351 5043937 964256 610001 712148
is_linear=0
shrinkage=0.1


Tree=23
num_leaves=31
num_cat=0
split_feature=18 19 10 34 33 18 8 42 42 10 27 47 25 43 40 34 45 10 27 43 12 44 44 16 44 18 43 40 43 33
split_gain=11311.4 5211.33 2752.14 1999.83 1606.89 855.761 759.44 729.721 725.309 652.609 639.903 543.048 485.944 452.292 517.913 440.418 437.383 418.306 441.846 366.461 362.657 445.227 360.86 340.981 352.84 317.6 311.385 491.199 308.451 301.428
threshold=10.064875500000001 1.1495941500000002 13.210125500000002 10.209544250000002 15.920101500000003 15.023409000000003 9.5881680000000014 8.5000000000000018 5.5000000000000009 24.064387000000004 2.2843042500000004 3.5000000000000004 4.257277300000001 4.7420000000000005e-07 1.5000000000000002 13.473020500000002 43431.000000000007 19.180336000000004 1.8937744500000002 4.945500000000001e-07 9.2234215000000024 10079371.000000002 13249875.000000002 11.259667500000001 10006352.000000002 4.8191018500000009 4.7420000000000005e-07 1.5000000000000002 5.9115000000000015e-07 22.935920000000007
decision_type=2 2 2 2 2 2 2 2 2 2 2 2 2 2 2 2 2 2 2 2 2 2 2 2 2 2 2 2 2 2
left_child=1 6 4 5 7 9 12 10 17 11 -3 -2 25 14 22 -5 -9 18 -4 -15 -16 23 -13 -22 -25 -1 27 -6 -28 -29
right_child=3 2 8 15 26 -7 -8 16 -10 -11 -12 13 -14 19 20 -17 -18 -19 -20 -21 21 -23 -24 24 -26 -27 28 29 -30 -31
leaf_value=-0.094395512700223727 0.024638793064187474 -0.03564120155600637 -0.011957022826378253 0.022686219722060752 -0.044949837458169849 0.024706718375534172 -0.012059903073705193 -0.037789613593320559 -0.0076659196000972187 0.032986497677839031 -0.0021101832519460637 -0.082503120736100735 -0.029248826272888398 0.09431384528705461 0.014783450701289572 0.03928279184554738 -0.07021448495257572 0.035192697921097943 0.023855062466232108 0.013777709710672601 -0.040119310154901743 0.010786786683177799 -0.018797246803656621 -0.0057311563970044522 -0.11375275903828236 -0.065749765066877644 0.070030796984869234 -0.01430013186007139 0.0030122557229171256 0.007553332711676736
leaf_weight=8721.077910676333 9126.7399575290474 22850.114538769012 6204.2943083741484 58262.184570957834 4099.1913666000619 22955.521777375252 2092.4295233588782 8686.0393352620122 18270.389758380603 6987.466544521827 7579.230860085212 992.92004255154461 1992.0894941646839 597.91411897563376 12611.543293703857 22037.044821804244 7983.9775090331204 9432.500287824485 7747.0168795611389 10262.650925188747 3275.9285619689035 15221.224181414902 8508.6304569332715 39549.8291209444 304.71255277859746 6958.7477157079884 840.2829922140827 22337.687781920657 3758.4301781028025 8797.4310899529373
leaf_count=4812558 163275 4595865 108387 610725 381127 802452 44889 2416633 504349 132537 378230 211954 214302 17179 548081 129283 2948733 72370 64774 351808 420576 705607 1016336 2194486 20382 3694085 17148 1106448 98775 215022
internal_value=0 -0.0212203 -0.0138723 0.014826 -0.0239992 0.00718066 -0.0690267 -0.0365022 0.00726257 0.00343605 -0.0272894 0.00138051 -0.0757718 -0.000943838 -0.00352929 0.0272409 -0.0533193 0.0189266 0.00792905 0.0182115 -0.00059363 -0.00391708 -0.0254546 -0.00910623 -0.00655705 -0.0816825 -0.00921529 -0.0124095 0.015258 -0.00812529
internal_weight=0 148351 128587 210694 86932.4 130395 19764.3 47099.4 41654.2 107440 30429.3 100452 17671.9 91325.4 80464.8 80299.2 16670 23383.8 13951.3 10860.6 70963.2 58351.7 9501.55 43130.5 39854.5 15679.8 39833 35234.3 4598.71 31135.1
internal_count=28998376 21673695 12907861 7324681 12157981 6584673 8765834 10339461 749880 5782221 4974095 5649684 8720945 5486409 5117422 740008 5365366 245531 173161 368987 3889132 3341051 1228290 2635444 2214868 8506643 1818520 1702597 115923 1321470
is_linear=0
shrinkage=0.1


Tree=24
num_leaves=31
num_cat=0
split_feature=18 34 18 4 45 18 33 34 18 45 45 27 44 26 47 45 33 7 38 13 41 11 39 21 45 42 2 40 42 43
split_gain=10526.6 3966.62 2813.4 1610.12 1510.79 1028.37 951.303 936.61 666.289 598.533 536.095 508.858 537.401 507.601 474.88 465.356 454.46 425.096 424.341 399.872 369.863 358.855 346.432 333.56 314.035 319.154 311.185 310.051 295.66 293.042
threshold=9.0139495000000025 4.7983022500000008 12.963922500000001 3.9234932000000007 23.500000000000004 6.3476912000000008 21.328063500000003 8.723349500000003 18.789865000000002 27182.000000000004 24558.500000000004 2.1526347500000003 24754350.000000004 22.963986000000002 3.5000000000000004 23.500000000000004 32.02290150000001 10.989651500000003 49.500000000000007 38.132993500000005 141.50000000000003 28.013809000000006 1.5000000000000002 7.7752070000000009 115339.00000000001 7.5000000000000009 50.500000000000007 2.5000000000000004 7.5000000000000009 4.7420000000000005e-07
decision_type=2 2 2 2 2 2 2 2 2 2 2 2 2 2 2 2 2 2 2 2 2 2 2 2 2 2 2 2 2 2
left_child=1 3 4 5 21 19 13 9 15 10 11 26 14 18 -13 -4 20 -5 -6 -1 28 -2 -22 -7 -24 -26 -3 -20 -17 -9
right_child=2 7 8 17 6 23 -8 29 -10 -11 -12 12 -14 -15 -16 16 -18 -19 27 -21 22 -23 24 -25 25 -27 -28 -29 -30 -31
leaf_value=-0.085339523614894816 0.033165540688534667 -0.031266530810172978 0.04270738266647349 -0.024966250540833748 -8.4941433763552582e-05 -0.048679701474499987 0.0069891801291367866 -0.00084772409739646253 0.041092892484478609 -0.036696390407609976 0.068543895934765522 0.0091615553090731942 0.028423710282596638 0.032318817567244092 -0.030926682538899092 0.068492172681422395 0.028675641981152907 0.036686698840070732 -0.020067232562097991 0.012127340503774023 0.025520097402196119 0.0054618728393785853 0.012870552365756094 0.018150387485640972 0.013186682473947348 -0.016772597024219637 0.0062482159121689295 0.021681130779003514 0.0065578806641621136 0.026823771816740741
leaf_weight=13417.456592660412 16607.833801212168 13810.88552784393 8133.4537433132791 10282.081689749211 18435.564643654056 16305.843343497814 55597.429563084152 9272.4153954514586 17735.174026354303 12148.162822381564 830.35678260860732 5676.0607586586848 4646.0364320730732 2604.4847005415359 6163.8170482376299 2048.4824792840518 25628.020066377881 1254.8385905577525 40745.971736455409 434.55987124892999 12051.949020584318 6507.8582952593715 26114.326942864544 782.69205298321322 5771.3609646051191 9262.6201984319341 2632.6109967537341 1860.1211498475604 1235.7572307322407 6516.7443272968048
leaf_count=8889703 175487 805929 82719 1134819 1156295 6201322 1314507 136739 226742 1040141 26035 122571 37266 86733 292661 9545 285304 17234 4398415 102065 352293 181325 895894 43783 177326 574527 41755 136428 10932 40781
internal_value=0 -0.0266271 0.0112011 -0.0501441 0.00196834 -0.0620327 -0.00256736 -0.010436 0.0233733 -0.0176618 -0.0108123 -0.0128134 -0.000398357 -0.0109154 -0.0117083 0.019891 0.017631 -0.0182604 -0.0127601 -0.0822818 0.0126199 0.025366 0.0106093 -0.0456187 0.00624212 -0.0052716 -0.0252604 -0.0182446 0.0451882 0.0105733
internal_weight=0 104175 250340 42477.5 142359 30940.6 119244 61697.1 107981 45907.9 33759.8 32929.4 16485.9 63646.1 11839.9 90246 82112.5 11536.9 61041.7 13852 56484.5 23115.7 53200.3 17088.5 41148.3 15034 16443.5 42606.1 3284.24 15789.2
internal_count=28997276 18932804 10064472 16388926 7449190 15236873 7092378 2543878 2615282 2366358 1326217 1300182 452498 5777871 415232 2388540 2305821 1152053 5691138 8991768 2020517 356812 2000040 6245105 1647747 751853 847684 4534843 20477 177520
is_linear=0
shrinkage=0.1


Tree=25
num_leaves=31
num_cat=0
split_feature=18 19 10 33 33 42 25 44 7 7 17 7 33 33 16 20 40 43 45 37 13 47 46 47 7 17 31 33 38 22
split_gain=9748.83 4402.16 2399.12 1607.56 1359.92 982.495 872.152 700.625 636.471 531.602 758.606 512.683 444.623 402.458 368.925 364.266 392.621 667.771 358.983 358.756 335.968 308.937 307.047 412.411 299.402 356.829 296.612 294.646 280.382 500.43
threshold=10.427591000000001 1.1495941500000002 15.078716500000001 28.732379000000005 16.349383000000003 4.5000000000000009 5.485768750000001 24754350.000000004 6.9071434000000007 0.44924660000000005 128.50000000000003 0.43591281000000009 15.112730750000003 13.653962000000002 9.5849010000000003 0.10714698000000002 1.5000000000000002 1.0000000180025095e-35 29740.500000000004 4.6699116000000016 34.126625000000011 4.5000000000000009 1.0000000180025095e-35 5.5000000000000009 10.660185750000002 352.50000000000006 3.7488137500000005 26.689895500000002 52.500000000000007 2.5000000000000004
decision_type=2 2 2 2 2 2 2 2 2 2 2 2 2 2 2 2 2 2 2 2 2 2 2 2 2 2 2 2 2 2
left_child=1 8 4 5 6 24 11 -4 12 10 13 14 20 -7 -3 -5 17 -17 -8 -15 -1 -6 -9 -24 25 -2 -12 -23 29 -21
right_child=3 2 7 15 21 9 18 22 -10 -11 26 -13 -14 19 -16 16 -18 -19 -20 28 -22 27 23 -25 -26 -27 -28 -29 -30 -31
leaf_value=-0.082820577352621633 0.020758164525290345 -0.054251047423778634 -0.0039193666236976279 0.039212958575089163 0.0009167139159768587 -0.01777973599638661 0.0054555509545983301 0.0018785074337790393 -0.018267987353089429 0.016704810446924481 -0.049064341914267805 -0.020415252309725254 -0.029147717159712174 0.13948656207508567 -0.032891787150384259 -0.17354365891656437 0.026390841956294344 0.006493793793921402 -0.03381977903001606 0.011496969399491084 -0.0073701775628074772 -0.020690891417242296 0.047495116254371687 0.011172445986789578 0.04362937989987517 -0.047447635666429927 -0.014309834090625291 0.0086238793122874625 0.0014218836683814809 0.070787200059465191
leaf_weight=12810.895887313745 25107.143330236286 16047.950957469802 17811.686260721115 18473.83585815705 22611.527052062556 7606.0270956070162 8161.2139218962548 4510.3789358679496 2489.5772787044334 21430.738806659836 3290.9708032466442 13712.973455731306 2031.4825324183766 203.29396084981272 16300.410385097333 212.27051557524828 43544.962698248419 6992.5153791833436 3255.5318891400238 13441.76028914185 618.6675754538519 19251.471771772201 7429.4309616831233 5396.4094564332481 5903.7056880369637 791.21075773314806 9674.7085839607171 4171.6505068958504 34630.979108028856 1592.1852561920532
leaf_count=8340945 683519 6282180 451800 151682 673809 1048275 225518 41026 67827 693730 802037 1145553 183064 7749 3233652 15204 496905 155701 278659 307759 171384 1202445 34571 51406 37514 60147 765793 95262 1272210 17244
internal_value=0 -0.0185962 -0.0125638 0.0149877 -0.0202287 0.00815787 -0.0304864 0.0100096 -0.0651932 0.00291382 -0.00128197 -0.036619 -0.0727492 0.00364704 -0.0434881 0.0271897 0.0228131 0.00118945 -0.00574397 0.0069151 -0.0793448 -0.00742106 0.0243205 0.0322125 0.023307 0.0186744 -0.0231313 -0.0154699 0.00637245 0.0177762
internal_weight=0 156611 138661 192896 103513 123673 57478.1 35147.9 17950.6 91870.7 70439.9 46061.3 15461 57474.2 32348.4 69223.6 50749.7 7204.79 11416.7 49868.2 13429.6 46034.6 17336.2 12825.8 31802.1 25898.4 12965.7 23423.1 49664.9 15033.9
internal_count=28994570 22479101 13715881 6515469 13137078 5695977 11165562 578803 8763220 4914797 4221067 10661385 8695393 2653237 9515832 819492 667810 170905 504177 1604962 8512329 1971516 127003 85977 781180 743666 1567830 1297707 1597213 325003
is_linear=0
shrinkage=0.1


Tree=26
num_leaves=31
num_cat=0
split_feature=18 18 43 33 18 7 45 25 33 40 7 43 40 47 25 38 40 27 40 26 38 45 18 20 42 46 13 38 45 43
split_gain=8606.46 4206.84 2198.7 1567.04 1405.1 878.191 855.364 851.076 695.138 676.531 671.684 578.717 663.431 473.589 457.719 438.828 427.607 423.76 385.275 382.933 446.203 353.337 341.04 338.644 326.035 320.438 294.343 292.404 335.594 328.501
threshold=10.709010250000002 6.0561490000000004 4.7420000000000005e-07 18.092959500000003 16.254883000000003 4.6110577000000008 23.500000000000004 7.1502754500000014 26.142835500000004 1.5000000000000002 11.296016000000003 5.9115000000000015e-07 2.5000000000000004 6.5000000000000009 4.1155793500000009 51.500000000000007 1.5000000000000002 1.8830831000000001 1.5000000000000002 30.038407500000005 58.500000000000007 104.50000000000001 8.307158750000001 0.94166787000000018 7.5000000000000009 1.0000000180025095e-35 9.1729275000000019 57.500000000000007 727.50000000000011 1.2500000000000002e-09
decision_type=2 2 2 2 2 2 2 2 2 2 2 2 2 2 2 2 2 2 2 2 2 2 2 2 2 2 2 2 2 2
left_child=1 5 3 7 6 14 -2 9 19 24 11 -4 13 16 -1 21 -13 26 23 20 -8 -11 -17 -5 -3 -19 -18 28 29 -20
right_child=4 2 10 18 -6 -7 8 -9 -10 15 -12 12 -14 -15 -16 22 17 25 27 -21 -22 -23 -24 -25 -26 -27 -28 -29 -30 -31
leaf_value=-0.079742277680863768 0.031711288538554469 -0.034893788599683 0.052612810571488811 0.01583988006504515 0.031702887293115892 -0.023267883917319172 0.008532888218806543 0.010301285725989946 0.016468933746511361 -0.090548556858802406 0.032457813619171029 -0.04689813685374928 -0.13504810666327247 -0.02737420676357601 -0.027744767970876372 -0.04671063481103771 0.026583260493154539 -0.0013615481533546362 -0.0035022835288936582 0.057902804681455283 -0.0072556450341428498 -0.011867692644272397 -0.025562103383107201 -0.045218163671922988 -0.077142048945083808 0.044004136047950365 -0.0099951648339840354 -0.0095878308330094465 0.014850126906126988 -0.070585340873642391
leaf_weight=12514.408397871513 16648.092143387184 3064.670709486938 2099.863739159664 1193.6979322554835 39791.256071856042 4779.1838635216554 34584.546346730145 5113.8475708062615 51488.144128942688 592.09260355102742 9869.6791893827321 1385.7656719321385 369.27480077708606 5080.3470142333608 1957.7454622720616 13686.881642555894 2917.7601496710413 2271.6845854909625 4966.706498393658 1175.5029066376155 37103.189000369224 15838.761546261474 17216.689073453374 3800.0795311743568 4521.5829422195056 4949.0622016970592 8941.5894082805462 21049.547627029984 15286.59328962084 855.75577124409028
leaf_count=8399918 208722 633416 129743 50384 676260 205464 1584886 115978 823126 93368 54531 198730 42053 508467 271751 3790987 110862 28176 91958 29873 2611675 1812337 2622934 285805 1938358 37363 444381 862529 312916 20230
internal_value=0 -0.0165118 -0.0106831 -0.0180022 0.0151078 -0.0604346 0.0104245 -0.0287179 0.00757465 -0.0323511 0.0100244 0.00212122 -0.00196998 -4.63153e-05 -0.0727082 -0.0279078 0.00673743 0.0106329 -0.00435895 0.00128959 0.000361268 -0.014703 -0.0349286 -0.030623 -0.0600747 0.0297319 -0.000995761 -0.00124791 0.00706849 -0.0133618
internal_weight=0 164323 145072 107187 180791 19251.3 140999 60034.5 124351 54920.7 37885 28015.3 25915.5 25546.2 14472.2 47334.4 20465.9 19080.1 47152.4 72863.2 71687.7 16430.9 30903.6 4993.78 7586.25 7220.75 11859.3 42158.6 21109.1 5822.46
internal_count=28997181 23062639 14185506 12631200 5934542 8877133 5258282 11007378 5049560 10891400 1554306 1499775 1370032 1327979 8671669 8319626 819512 620782 1623822 4226434 4196561 1905705 6413921 336189 2571774 65539 555243 1287633 425104 112188
is_linear=0
shrinkage=0.1


Tree=27
num_leaves=31
num_cat=0
split_feature=18 18 18 6 3 33 34 18 42 43 8 44 40 45 31 33 26 47 42 9 17 22 45 25 42 27 38 40 20 44
split_gain=8278.95 2788.43 2598.16 1707.08 1448.57 842.514 741.604 531.498 497.621 397.436 383.436 365.515 380.443 359.649 340.535 302.835 299.904 295.74 294.006 289.632 396.524 289.038 305.482 275.77 271.14 255.509 241.703 241.035 338.031 247.72
